{"learner":{"attributes":{"scikit_learn":"{\"_estimator_type\": \"regressor\"}"},"feature_names":[],"feature_types":[],"gradient_booster":{"model":{"cats":{"enc":[],"feature_segments":[],"sorted_idx":[]},"gbtree_model_param":{"num_parallel_tree":"1","num_trees":"300"},"iteration_indptr":[0,1,2,3,4,5,6,7,8,9,10,11,12,13,14,15,16,17,18,19,20,21,22,23,24,25,26,27,28,29,30,31,32,33,34,35,36,37,38,39,40,41,42,43,44,45,46,47,48,49,50,51,52,53,54,55,56,57,58,59,60,61,62,63,64,65,66,67,68,69,70,71,72,73,74,75,76,77,78,79,80,81,82,83,84,85,86,87,88,89,90,91,92,93,94,95,96,97,98,99,100,101,102,103,104,105,106,107,108,109,110,111,112,113,114,115,116,117,118,119,120,121,122,123,124,125,126,127,128,129,130,131,132,133,134,135,136,137,138,139,140,141,142,143,144,145,146,147,148,149,150,151,152,153,154,155,156,157,158,159,160,161,162,163,164,165,166,167,168,169,170,171,172,173,174,175,176,177,178,179,180,181,182,183,184,185,186,187,188,189,190,191,192,193,194,195,196,197,198,199,200,201,202,203,204,205,206,207,208,209,210,211,212,213,214,215,216,217,218,219,220,221,222,223,224,225,226,227,228,229,230,231,232,233,234,235,236,237,238,239,240,241,242,243,244,245,246,247,248,249,250,251,252,253,254,255,256,257,258,259,260,261,262,263,264,265,266,267,268,269,270,271,272,273,274,275,276,277,278,279,280,281,282,283,284,285,286,287,288,289,290,291,292,293,294,295,296,297,298,299,300],"tree_info":[0,0,0,0,0,0,0,0,0,0,0,0,0,0,0,0,0,0,0,0,0,0,0,0,0,0,0,0,0,0,0,0,0,0,0,0,0,0,0,0,0,0,0,0,0,0,0,0,0,0,0,0,0,0,0,0,0,0,0,0,0,0,0,0,0,0,0,0,0,0,0,0,0,0,0,0,0,0,0,0,0,0,0,0,0,0,0,0,0,0,0,0,0,0,0,0,0,0,0,0,0,0,0,0,0,0,0,0,0,0,0,0,0,0,0,0,0,0,0,0,0,0,0,0,0,0,0,0,0,0,0,0,0,0,0,0,0,0,0,0,0,0,0,0,0,0,0,0,0,0,0,0,0,0,0,0,0,0,0,0,0,0,0,0,0,0,0,0,0,0,0,0,0,0,0,0,0,0,0,0,0,0,0,0,0,0,0,0,0,0,0,0,0,0,0,0,0,0,0,0,0,0,0,0,0,0,0,0,0,0,0,0,0,0,0,0,0,0,0,0,0,0,0,0,0,0,0,0,0,0,0,0,0,0,0,0,0,0,0,0,0,0,0,0,0,0,0,0,0,0,0,0,0,0,0,0,0,0,0,0,0,0,0,0,0,0,0,0,0,0,0,0,0,0,0,0,0,0,0,0,0,0,0,0,0,0,0,0,0,0,0,0,0,0,0,0,0,0,0,0],"trees":[{"base_weights":[9.85523E0,9.23858E3,-8.926947E3,1.7895781E4,5.4194775E3,-6.65977E3,-1.004627E4,1.6854055E4,3.354027E4,4.226116E3,1.2634505E4,-7.076128E3,-4.0257886E3,-1.1526043E4,-8.515943E3,1.4221523E4,2.0046324E4,3.6691246E4,2.7192055E4,1.8791528E3,6.767436E3,8.05545E3,1.6600518E4,-5.1291595E2,-7.012327E3,-7.4710913E2,-4.206471E3,-1.1939538E4,-1.0834468E4,-8.8198545E3,-6.8472886E3,1.9353643E4,1.2204237E4,1.4669793E4,2.3631775E4,4.111857E4,3.1838256E4,1.6160413E3,1.1018523E3,-3.4344397E2,2.0264668E3,6.470329E3,1.8966396E3,5.247578E3,1.2046723E4,1.3444029E4,1.884157E4,-7.227253E3,-6.4720386E3,3.9029312E2,-1.9572635E3,-3.8472452E2,-3.9755376E3,-1.203002E4,-1.0595254E4,-6.1596906E2,-1.0341564E4,-6.0092004E2,-8.754374E3,-7.3315625E3,-5.8910996E3,1.0449197E3,7.039588E2,5.318815E2,1.00460803E3,5.6832996E2,1.0580419E3,1.3552284E3,6.602518E2,1.6476885E3,2.1459497E3,2.171719E3,1.4073025E3,5.8079773E1,1.6393729E2,1.9268962E2,3.6254117E2,2.323501E2,3.5749652E2,1.2386923E3,4.8948312E2,7.3688495E2,5.804425E2,8.30571E2,1.1890237E3,-3.06836E2,-3.650149E2,-3.465263E2,-2.9036682E2,2.868934E1,-1.925107E1,-2.4579507E2,-4.8596844E1,-2.4494554E2,-1.7189885E2,-5.903569E2,-6.343605E2,-6.030827E2,-4.9818726E2,-4.6292838E2,-5.266466E2,-4.5338174E2,-4.293881E2,-3.5134515E2,-4.0373697E2,-3.035417E2,-2.576992E2],"categories":[],"categories_nodes":[],"categories_segments":[],"categories_sizes":[],"default_left":[0,0,0,0,0,0,0,0,0,0,0,0,0,0,0,0,0,0,0,0,0,0,0,0,0,0,0,0,0,0,0,0,0,0,0,0,0,0,0,0,0,0,0,0,0,0,0,0,0,0,0,0,0,0,0,0,0,0,0,0,0,0,0,0,0,0,0,0,0,0,0,0,0,0,0,0,0,0,0,0,0,0,0,0,0,0,0,0,0,0,0,0,0,0,0,0,0,0,0,0,0,0,0,0,0,0,0],"id":0,"left_children":[1,3,5,7,9,11,13,15,17,19,21,23,25,27,29,31,33,35,37,39,41,43,45,-1,47,49,51,53,55,57,59,61,63,65,67,69,71,-1,-1,-1,73,75,-1,77,79,81,83,85,87,89,91,-1,93,95,97,-1,99,-1,101,103,105,-1,-1,-1,-1,-1,-1,-1,-1,-1,-1,-1,-1,-1,-1,-1,-1,-1,-1,-1,-1,-1,-1,-1,-1,-1,-1,-1,-1,-1,-1,-1,-1,-1,-1,-1,-1,-1,-1,-1,-1,-1,-1,-1,-1,-1,-1],"loss_changes":[2.868903E12,5.657057E11,4.4779307E10,8.479978E10,1.0220057E11,6.380503E9,2.6689143E10,4.1002467E10,5.523276E9,6.0776284E10,3.046685E10,9.5232E8,4.7077786E8,1.5895101E9,2.8905636E9,2.7675329E10,4.241031E10,3.310289E9,2.2488842E9,6.844068E9,4.5060997E10,8.723059E9,6.1273047E9,0E0,5.2790886E8,5.995065E7,5.7997824E8,3.288924E8,1.526743E9,9.250734E8,3.7402624E8,5.889917E9,2.3734682E10,1.8842108E10,4.776506E10,1.8795725E8,3.3587282E9,0E0,0E0,0E0,5.6421827E9,9.872605E9,0E0,4.9461043E8,9.035932E9,7.263273E8,5.3875835E9,2.365522E8,3.91893E8,3.4930408E6,5.6441176E7,0E0,3.3706803E8,3.6408525E8,1.0669875E8,0E0,2.5542656E8,0E0,1.73867E8,7.775027E7,9.515008E6,0E0,0E0,0E0,0E0,0E0,0E0,0E0,0E0,0E0,0E0,0E0,0E0,0E0,0E0,0E0,0E0,0E0,0E0,0E0,0E0,0E0,0E0,0E0,0E0,0E0,0E0,0E0,0E0,0E0,0E0,0E0,0E0,0E0,0E0,0E0,0E0,0E0,0E0,0E0,0E0,0E0,0E0,0E0,0E0,0E0,0E0],"parents":[2147483647,0,0,1,1,2,2,3,3,4,4,5,5,6,6,7,7,8,8,9,9,10,10,11,11,12,12,13,13,14,14,15,15,16,16,17,17,18,18,19,19,20,20,21,21,22,22,24,24,25,25,26,26,27,27,28,28,29,29,30,30,31,31,32,32,33,33,34,34,35,35,36,36,40,40,41,41,43,43,44,44,45,45,46,46,47,47,48,48,49,49,50,50,52,52,53,53,54,54,56,56,58,58,59,59,60,60],"right_children":[2,4,6,8,10,12,14,16,18,20,22,24,26,28,30,32,34,36,38,40,42,44,46,-1,48,50,52,54,56,58,60,62,64,66,68,70,72,-1,-1,-1,74,76,-1,78,80,82,84,86,88,90,92,-1,94,96,98,-1,100,-1,102,104,106,-1,-1,-1,-1,-1,-1,-1,-1,-1,-1,-1,-1,-1,-1,-1,-1,-1,-1,-1,-1,-1,-1,-1,-1,-1,-1,-1,-1,-1,-1,-1,-1,-1,-1,-1,-1,-1,-1,-1,-1,-1,-1,-1,-1,-1,-1],"split_conditions":[4E0,1E0,5E0,1.3125E2,1.222E2,1.2024E2,6E0,-2.98E0,-2.54E0,2E0,2E0,1E0,1.2029E2,-2.61E0,1.222E2,1.0859E2,1.0395E2,8E0,1.7E2,1E0,3E0,1.3125E2,1.2738E2,-5.1291595E2,1.1148E2,2.6E1,1.222E2,1.2431E2,1.0036E2,1E0,1.3274E2,-5.17E0,1.2024E2,9E0,1.1872E2,2E0,1.404E2,1.6160413E3,1.1018523E3,-3.4344397E2,-2.75E0,-7.43E0,1.8966396E3,1.2738E2,-8.46E0,8E0,-8.7E-1,9.867E1,-3.4E0,1.1E1,5E0,-3.8472452E2,8.7E1,1.1539E2,-8.46E0,-6.1596906E2,-2.17E0,-6.0092004E2,-6.86E0,5.7E-1,2.14E2,1.0449197E3,7.039588E2,5.318815E2,1.00460803E3,5.6832996E2,1.0580419E3,1.3552284E3,6.602518E2,1.6476885E3,2.1459497E3,2.171719E3,1.4073025E3,5.8079773E1,1.6393729E2,1.9268962E2,3.6254117E2,2.323501E2,3.5749652E2,1.2386923E3,4.8948312E2,7.3688495E2,5.804425E2,8.30571E2,1.1890237E3,-3.06836E2,-3.650149E2,-3.465263E2,-2.9036682E2,2.868934E1,-1.925107E1,-2.4579507E2,-4.8596844E1,-2.4494554E2,-1.7189885E2,-5.903569E2,-6.343605E2,-6.030827E2,-4.9818726E2,-4.6292838E2,-5.266466E2,-4.5338174E2,-4.293881E2,-3.5134515E2,-4.0373697E2,-3.035417E2,-2.576992E2],"split_indices":[0,0,0,6,6,6,0,5,5,0,0,1,6,5,6,6,6,4,1,1,0,6,6,0,6,1,6,6,6,1,6,5,6,4,6,4,6,0,0,0,5,5,0,6,5,4,5,6,5,4,4,0,1,6,5,0,5,0,5,5,1,0,0,0,0,0,0,0,0,0,0,0,0,0,0,0,0,0,0,0,0,0,0,0,0,0,0,0,0,0,0,0,0,0,0,0,0,0,0,0,0,0,0,0,0,0,0],"split_type":[0,0,0,0,0,0,0,0,0,0,0,0,0,0,0,0,0,0,0,0,0,0,0,0,0,0,0,0,0,0,0,0,0,0,0,0,0,0,0,0,0,0,0,0,0,0,0,0,0,0,0,0,0,0,0,0,0,0,0,0,0,0,0,0,0,0,0,0,0,0,0,0,0,0,0,0,0,0,0,0,0,0,0,0,0,0,0,0,0,0,0,0,0,0,0,0,0,0,0,0,0,0,0,0,0,0,0],"sum_hessian":[3.4783E4,1.7112E4,1.7671E4,5.237E3,1.1875E4,5.843E3,1.1828E4,4.912E3,3.25E2,1.0191E4,1.684E3,5.044E3,7.99E2,6.01E3,5.818E3,2.695E3,2.217E3,2.14E2,1.11E2,5.299E3,4.892E3,7.83E2,9.01E2,9.6E1,4.948E3,4.2E1,7.57E2,3.751E3,2.259E3,4.918E3,9E2,7.58E2,1.937E3,8.89E2,1.328E3,1.08E2,1.06E2,5.3E1,5.8E1,8.7E1,5.212E3,4.847E3,4.5E1,4.61E2,3.22E2,3.77E2,5.24E2,3.531E3,1.417E3,2.2E1,2E1,4.5E1,7.12E2,3.507E3,2.44E2,5.57E2,1.702E3,9.5E1,4.823E3,5.93E2,3.07E2,5.84E2,1.74E2,1.618E3,3.19E2,5.91E2,2.98E2,9.95E2,3.33E2,2.3E1,8.5E1,2.3E1,8.3E1,3.084E3,2.128E3,1.115E3,3.732E3,3.53E2,1.08E2,4.7E1,2.75E2,2.17E2,1.6E2,3.64E2,1.6E2,2.27E2,3.304E3,8.33E2,5.84E2,1.8E1,4E0,4E0,1.6E1,2.59E2,4.53E2,2.633E3,8.74E2,6.8E1,1.76E2,2.63E2,1.439E3,1.656E3,3.167E3,4.28E2,1.65E2,2.41E2,6.6E1],"tree_param":{"num_deleted":"0","num_feature":"7","num_nodes":"107","size_leaf_vector":"1"}},{"base_weights":[-3.675504E1,-1.6274407E3,1.2805256E3,-2.8265315E3,-8.356245E1,3.285263E3,-1.4649978E3,-4.0181137E2,-3.5838848E3,-9.698952E2,1.0947633E3,1.7770781E3,5.297075E3,-2.5820898E3,-5.648818E1,-1.3861027E3,1.1503683E3,-4.1610063E3,-1.8049609E3,-2.581747E3,-6.346173E2,2.2511314E2,2.068462E3,-3.1550935E3,2.164074E3,3.0553289E3,6.1502446E3,-3.7679124E3,-1.5971932E3,-1.6061447E3,1.0789012E3,-4.243079E3,-1.0373365E3,-2.8677712E3,1.6904335E3,-5.1207075E3,-2.8903862E3,-4.0315354E3,-1.4524679E3,-3.8909094E3,-1.3215952E3,-5.145654E2,-2.7061575E3,-1.6367498E3,6.1970624E2,9.142885E2,2.9562542E3,-6.9942705E3,-2.3649866E3,1.7532187E2,2.9068423E3,7.7901404E2,6.246595E3,4.376347E3,6.8157466E3,-4.97358E3,-2.9273215E3,-6.930903E2,-3.7388438E3,-3.1595062E2,-2.5370188E3,1.7572979E3,-1.707882E3,-1.7632632E2,-2.8970694E2,9.0830345E0,-1.1464723E2,-9.130601E1,-3.551365E2,1.8618425E2,-1.40721655E1,-1.4025916E2,-2.7268195E2,-1.16810234E2,-1.8899089E2,-1.0146887E2,-2.3000877E2,-1.1158721E2,-3.2681984E1,-2.0378722E2,-1.21754875E2,-9.863907E1,-3.6859165E1,-5.6542152E1,-1.5844759E1,-1.3143862E1,-1.8125316E2,-1.0571166E2,-7.607033E0,5.8371613E1,-2.7153385E1,9.5402504E1,-8.538834E0,1.3192021E2,2.2999052E2,-4.320105E2,-2.7630188E2,-3.3593674E1,-1.7260448E2,-6.728486E1,1.2929942E2,2.011862E2,1.0545278E2,-7.822057E1,8.468321E1,2.3871304E1,3.500616E2,1.489805E2,2.9199582E2,3.9789047E2,2.8592676E2,-2.2125603E2,-3.1366162E2,-9.621122E1,-1.6952882E2,8.002178E1,-5.2456337E1,-2.1350601E2,-1.1244881E2,-6.876351E1,3.908646E1,-2.1556523E2,-1.04901405E2,4.089358E1,1.4094183E2,-2.0716621E2,-5.9694256E1],"categories":[],"categories_nodes":[],"categories_segments":[],"categories_sizes":[],"default_left":[0,0,0,0,0,0,0,0,0,0,0,0,0,0,0,0,0,0,0,0,0,0,0,0,0,0,0,0,0,0,0,0,0,0,0,0,0,0,0,0,0,0,0,0,0,0,0,0,0,0,0,0,0,0,0,0,0,0,0,0,0,0,0,0,0,0,0,0,0,0,0,0,0,0,0,0,0,0,0,0,0,0,0,0,0,0,0,0,0,0,0,0,0,0,0,0,0,0,0,0,0,0,0,0,0,0,0,0,0,0,0,0,0,0,0,0,0,0,0,0,0,0,0,0,0,0,0],"id":1,"left_children":[1,3,5,7,9,11,13,15,17,19,21,23,25,27,29,31,33,35,37,39,41,43,45,47,49,51,53,55,57,59,61,63,65,67,69,71,73,75,77,79,81,83,85,87,89,91,93,95,97,99,101,103,105,107,109,111,113,115,117,119,121,123,125,-1,-1,-1,-1,-1,-1,-1,-1,-1,-1,-1,-1,-1,-1,-1,-1,-1,-1,-1,-1,-1,-1,-1,-1,-1,-1,-1,-1,-1,-1,-1,-1,-1,-1,-1,-1,-1,-1,-1,-1,-1,-1,-1,-1,-1,-1,-1,-1,-1,-1,-1,-1,-1,-1,-1,-1,-1,-1,-1,-1,-1,-1,-1,-1],"loss_changes":[7.323351E10,2.9308748E10,1.0523131E11,1.6362463E10,7.23032E9,3.3518338E10,1.26959E10,3.2435796E9,6.9634703E9,2.1335544E9,2.516156E9,1.2064279E10,9.035407E9,5.249587E9,6.2830177E9,1.289943E9,1.7929748E9,6.2359306E9,1.3009224E9,1.1166828E9,8.123282E8,1.1551939E9,1.433879E9,1.3788032E9,8.65282E9,9.489608E9,4.017029E9,2.0539392E9,4.760638E9,1.8127212E9,3.899413E9,1.3627546E8,1.7743619E9,4.1934093E8,2.9158252E9,2.2349824E9,1.079507E9,2.4910464E8,8.9432986E8,7.968E7,1.3098067E8,3.7655174E8,4.009275E8,1.9461907E8,8.266694E8,6.591649E8,4.0160717E8,1.4074906E8,7.0262566E8,5.8481516E9,3.7917737E9,1.6402182E9,2.3650284E9,1.900077E9,3.075924E9,5.688586E8,5.5342694E8,1.4151764E9,5.682145E8,7.3828646E8,6.740449E8,1.6511135E9,5.0078374E8,0E0,0E0,0E0,0E0,0E0,0E0,0E0,0E0,0E0,0E0,0E0,0E0,0E0,0E0,0E0,0E0,0E0,0E0,0E0,0E0,0E0,0E0,0E0,0E0,0E0,0E0,0E0,0E0,0E0,0E0,0E0,0E0,0E0,0E0,0E0,0E0,0E0,0E0,0E0,0E0,0E0,0E0,0E0,0E0,0E0,0E0,0E0,0E0,0E0,0E0,0E0,0E0,0E0,0E0,0E0,0E0,0E0,0E0,0E0,0E0,0E0,0E0,0E0,0E0],"parents":[2147483647,0,0,1,1,2,2,3,3,4,4,5,5,6,6,7,7,8,8,9,9,10,10,11,11,12,12,13,13,14,14,15,15,16,16,17,17,18,18,19,19,20,20,21,21,22,22,23,23,24,24,25,25,26,26,27,27,28,28,29,29,30,30,31,31,32,32,33,33,34,34,35,35,36,36,37,37,38,38,39,39,40,40,41,41,42,42,43,43,44,44,45,45,46,46,47,47,48,48,49,49,50,50,51,51,52,52,53,53,54,54,55,55,56,56,57,57,58,58,59,59,60,60,61,61,62,62],"right_children":[2,4,6,8,10,12,14,16,18,20,22,24,26,28,30,32,34,36,38,40,42,44,46,48,50,52,54,56,58,60,62,64,66,68,70,72,74,76,78,80,82,84,86,88,90,92,94,96,98,100,102,104,106,108,110,112,114,116,118,120,122,124,126,-1,-1,-1,-1,-1,-1,-1,-1,-1,-1,-1,-1,-1,-1,-1,-1,-1,-1,-1,-1,-1,-1,-1,-1,-1,-1,-1,-1,-1,-1,-1,-1,-1,-1,-1,-1,-1,-1,-1,-1,-1,-1,-1,-1,-1,-1,-1,-1,-1,-1,-1,-1,-1,-1,-1,-1,-1,-1,-1,-1,-1,-1,-1,-1],"split_conditions":[1.1E1,2.022E3,2.6E1,4E0,-6.8E0,2.022E3,2.022E3,-6.7E0,1.1E1,3E0,2.023E3,1E0,-4.56E0,2.9E1,2.9E1,2.018E3,2.018E3,-6.76E0,-7.94E0,2.023E3,1.2E1,3E0,6E0,2.009E3,-4.56E0,2.3E1,1.3E1,-3.33E0,1.67E0,2.7E1,2.97E0,-7.02E0,2.021E3,4.17E0,2.021E3,5E0,7E0,2.017E3,1.2E1,1.9E2,2E0,-7.94E0,9E0,-1.28E0,1E1,-5.67E0,1.1E1,6E0,2.013E3,2.3E1,-1.24E0,-8.51E0,-1.015E1,2.023E3,1.19E2,1.45E2,5E0,3E0,1E1,2.023E3,3E0,2.023E3,3E0,-1.7632632E2,-2.8970694E2,9.0830345E0,-1.1464723E2,-9.130601E1,-3.551365E2,1.8618425E2,-1.40721655E1,-1.4025916E2,-2.7268195E2,-1.16810234E2,-1.8899089E2,-1.0146887E2,-2.3000877E2,-1.1158721E2,-3.2681984E1,-2.0378722E2,-1.21754875E2,-9.863907E1,-3.6859165E1,-5.6542152E1,-1.5844759E1,-1.3143862E1,-1.8125316E2,-1.0571166E2,-7.607033E0,5.8371613E1,-2.7153385E1,9.5402504E1,-8.538834E0,1.3192021E2,2.2999052E2,-4.320105E2,-2.7630188E2,-3.3593674E1,-1.7260448E2,-6.728486E1,1.2929942E2,2.011862E2,1.0545278E2,-7.822057E1,8.468321E1,2.3871304E1,3.500616E2,1.489805E2,2.9199582E2,3.9789047E2,2.8592676E2,-2.2125603E2,-3.1366162E2,-9.621122E1,-1.6952882E2,8.002178E1,-5.2456337E1,-2.1350601E2,-1.1244881E2,-6.876351E1,3.908646E1,-2.1556523E2,-1.04901405E2,4.089358E1,1.4094183E2,-2.0716621E2,-5.9694256E1],"split_indices":[2,3,2,4,5,3,3,5,4,4,3,1,5,2,2,3,3,5,5,3,4,4,4,3,5,2,2,5,5,2,5,5,3,5,3,4,2,3,4,1,4,5,2,5,4,5,4,4,3,2,5,5,5,3,1,1,4,4,4,3,4,3,4,0,0,0,0,0,0,0,0,0,0,0,0,0,0,0,0,0,0,0,0,0,0,0,0,0,0,0,0,0,0,0,0,0,0,0,0,0,0,0,0,0,0,0,0,0,0,0,0,0,0,0,0,0,0,0,0,0,0,0,0,0,0,0,0],"split_type":[0,0,0,0,0,0,0,0,0,0,0,0,0,0,0,0,0,0,0,0,0,0,0,0,0,0,0,0,0,0,0,0,0,0,0,0,0,0,0,0,0,0,0,0,0,0,0,0,0,0,0,0,0,0,0,0,0,0,0,0,0,0,0,0,0,0,0,0,0,0,0,0,0,0,0,0,0,0,0,0,0,0,0,0,0,0,0,0,0,0,0,0,0,0,0,0,0,0,0,0,0,0,0,0,0,0,0,0,0,0,0,0,0,0,0,0,0,0,0,0,0,0,0,0,0,0,0],"sum_hessian":[3.4948E4,1.5831E4,1.9117E4,8.91E3,6.921E3,1.1049E4,8.068E3,2.121E3,6.789E3,3.95E3,2.971E3,6.316E3,4.733E3,4.499E3,3.569E3,1.298E3,8.23E2,5.125E3,1.664E3,6.79E2,3.271E3,1.57E3,1.401E3,4.59E2,5.857E3,1.306E3,3.427E3,2.04E3,2.459E3,1.509E3,2.06E3,1.4E2,1.158E3,9.7E1,7.26E2,2.918E3,2.207E3,2.26E2,1.438E3,3.32E2,3.47E2,3.093E3,1.78E2,2.74E2,1.296E3,6.1E2,7.91E2,7.7E1,3.82E2,1.593E3,4.264E3,7.63E2,5.43E2,9.37E2,2.49E3,8.36E2,1.204E3,1.73E3,7.29E2,6.33E2,8.76E2,1.657E3,4.03E2,9.8E1,4.2E1,5.88E2,5.7E2,7.9E1,1.8E1,3.57E2,3.69E2,3.68E2,2.55E3,1.362E3,8.45E2,5.1E1,1.75E2,7.27E2,7.11E2,2.93E2,3.9E1,1.63E2,1.84E2,7.5E2,2.343E3,4.9E1,1.29E2,2.07E2,6.7E1,8.81E2,4.15E2,3.18E2,2.92E2,6.65E2,1.26E2,3.4E1,4.3E1,1.5E2,2.32E2,9.77E2,6.16E2,1.775E3,2.489E3,2.14E2,5.49E2,6.3E1,4.8E2,4.81E2,4.56E2,1.217E3,1.273E3,5.91E2,2.45E2,3.82E2,8.22E2,2.32E2,1.498E3,5.36E2,1.93E2,3.22E2,3.11E2,1.72E2,7.04E2,8.8E2,7.77E2,6.9E1,3.34E2],"tree_param":{"num_deleted":"0","num_feature":"7","num_nodes":"127","size_leaf_vector":"1"}},{"base_weights":[2.1053099E1,8.814943E3,-8.461993E3,1.7063137E4,5.1475615E3,-6.3437563E3,-9.520933E3,1.6083394E4,3.1811969E4,4.009344E3,1.1896596E4,-8.602101E3,-3.4846777E3,-1.0929744E4,-8.069145E3,1.3213381E4,1.9863451E4,3.4862496E4,2.539107E4,1.7639972E3,6.450339E3,7.5242544E3,1.5700385E4,-9.480201E3,-7.330478E3,-4.0560325E3,-1.9924164E2,-1.1291097E4,-9.515479E3,-8.326221E3,-6.633741E3,7.957569E3,1.4803248E4,1.6701562E4,2.3015586E4,2.0335059E4,3.614093E4,1.5428197E3,1.9863822E4,-2.1717839E2,4.328776E3,6.176887E3,3.6221836E4,5.212658E3,1.2224602E4,1.29861045E4,1.7717682E4,-4.907722E2,-8.492988E3,-7.440781E3,-6.4357134E3,-3.382835E3,-4.8422896E3,3.2244095E2,-3.431918E3,-1.1667962E4,-1.0675599E4,-4.9392545E2,-8.989219E3,-6.537208E2,-8.287706E3,-7.0835127E3,-5.7861235E3,3.3088373E2,1.0567279E3,8.211206E2,4.0138864E2,9.7229895E2,6.942104E2,8.844914E2,1.2625984E3,1.702308E3,7.3896954E2,1.4463955E3,1.9272375E3,7.7146625E2,1.3108682E3,-1.8671513E2,3.0793821E1,1.647642E2,2.7495914E2,2.5305357E2,5.2084186E2,1.2377177E3,1.9433275E3,1.7019792E2,3.581472E2,9.5789355E2,3.948032E2,7.8617633E2,5.898579E2,7.850653E2,1.1084497E3,-4.4527536E2,-3.9259494E2,-2.0734428E2,-3.7324982E2,-3.4738425E2,-2.9243784E2,-1.7941731E2,-1.0483008E2,-2.5233397E2,-1.8407222E2,-3.0327688E1,1.16757164E2,-2.3954265E2,-9.620771E0,-5.5963226E2,-5.919699E2,-5.9550385E2,-5.130713E2,-4.250975E2,-4.9812164E2,-3.9147275E2,-4.2578833E2,-3.1139874E2,-3.7309714E2,-2.4568835E2,-3.071053E2],"categories":[],"categories_nodes":[],"categories_segments":[],"categories_sizes":[],"default_left":[0,0,0,0,0,0,0,0,0,0,0,0,0,0,0,0,0,0,0,0,0,0,0,0,0,0,0,0,0,0,0,0,0,0,0,0,0,0,0,0,0,0,0,0,0,0,0,0,0,0,0,0,0,0,0,0,0,0,0,0,0,0,0,0,0,0,0,0,0,0,0,0,0,0,0,0,0,0,0,0,0,0,0,0,0,0,0,0,0,0,0,0,0,0,0,0,0,0,0,0,0,0,0,0,0,0,0,0,0,0,0,0,0,0,0,0,0,0,0],"id":2,"left_children":[1,3,5,7,9,11,13,15,17,19,21,23,25,27,29,31,33,35,37,39,41,43,45,47,49,51,53,55,57,59,61,63,65,67,69,71,73,-1,75,77,79,81,83,85,87,89,91,-1,93,95,97,99,101,103,105,107,109,-1,111,-1,113,115,117,-1,-1,-1,-1,-1,-1,-1,-1,-1,-1,-1,-1,-1,-1,-1,-1,-1,-1,-1,-1,-1,-1,-1,-1,-1,-1,-1,-1,-1,-1,-1,-1,-1,-1,-1,-1,-1,-1,-1,-1,-1,-1,-1,-1,-1,-1,-1,-1,-1,-1,-1,-1,-1,-1,-1,-1],"loss_changes":[2.5996996E12,5.175075E11,3.97274E10,7.558241E10,9.095168E10,3.8161908E10,2.4095425E10,5.3330706E10,5.5198024E9,5.5553786E10,2.8305048E10,3.619799E9,4.902306E9,2.9578363E9,2.0949238E9,2.3371022E10,2.0844773E10,3.3324073E9,2.679767E9,2.6840244E10,3.9317406E10,8.595923E9,4.7690547E9,5.6233165E8,8.574566E7,1.1613225E9,6.554421E8,9.8238464E8,1.45621E8,7.9468954E8,2.9831168E8,1.142467E10,2.3531782E10,7.980024E9,1.2225937E10,1.0203003E9,2.3527424E9,0E0,1.2014408E9,8.736503E9,2.7663892E9,2.2722314E10,3.723223E8,1.8663465E9,7.7115884E9,1.0935788E9,4.328145E9,0E0,6.283264E7,6.467584E7,6.242304E6,3.102075E8,2.2438093E8,6.277962E8,2.3680038E8,1.0780672E8,8.10369E8,0E0,1.580974E8,0E0,4.4551373E8,1.403351E8,6.7328E7,0E0,0E0,0E0,0E0,0E0,0E0,0E0,0E0,0E0,0E0,0E0,0E0,0E0,0E0,0E0,0E0,0E0,0E0,0E0,0E0,0E0,0E0,0E0,0E0,0E0,0E0,0E0,0E0,0E0,0E0,0E0,0E0,0E0,0E0,0E0,0E0,0E0,0E0,0E0,0E0,0E0,0E0,0E0,0E0,0E0,0E0,0E0,0E0,0E0,0E0,0E0,0E0,0E0,0E0,0E0,0E0],"parents":[2147483647,0,0,1,1,2,2,3,3,4,4,5,5,6,6,7,7,8,8,9,9,10,10,11,11,12,12,13,13,14,14,15,15,16,16,17,17,18,18,19,19,20,20,21,21,22,22,23,23,24,24,25,25,26,26,27,27,28,28,29,29,30,30,31,31,32,32,33,33,34,34,35,35,36,36,38,38,39,39,40,40,41,41,42,42,43,43,44,44,45,45,46,46,48,48,49,49,50,50,51,51,52,52,53,53,54,54,55,55,56,56,58,58,60,60,61,61,62,62],"right_children":[2,4,6,8,10,12,14,16,18,20,22,24,26,28,30,32,34,36,38,40,42,44,46,48,50,52,54,56,58,60,62,64,66,68,70,72,74,-1,76,78,80,82,84,86,88,90,92,-1,94,96,98,100,102,104,106,108,110,-1,112,-1,114,116,118,-1,-1,-1,-1,-1,-1,-1,-1,-1,-1,-1,-1,-1,-1,-1,-1,-1,-1,-1,-1,-1,-1,-1,-1,-1,-1,-1,-1,-1,-1,-1,-1,-1,-1,-1,-1,-1,-1,-1,-1,-1,-1,-1,-1,-1,-1,-1,-1,-1,-1,-1,-1,-1,-1,-1,-1],"split_conditions":[4E0,1E0,5E0,1.3125E2,1.222E2,2.022E3,6E0,2.022E3,-2.54E0,2E0,2E0,2.021E3,1.2024E2,2.023E3,1.222E2,-7.35E0,-3.69E0,2.017E3,1.7E2,2.022E3,3E0,1.3274E2,1.2738E2,1.1508E2,1.2259E2,2.023E3,6.5E-1,-2.61E0,-3.33E0,2.013E3,1.3274E2,1.1888E2,1.1872E2,2.023E3,1.0315E2,1.3405E2,-8.46E0,1.5428197E3,2.022E3,2.018E3,2.023E3,2.023E3,2.009E3,2.022E3,-5.55E0,2.021E3,-8.7E-1,-4.907722E2,1.2259E2,-8.66E0,-2.57E0,1.1522E2,1.1521E2,-2.54E0,1.2738E2,1.0811E2,1.0036E2,-4.9392545E2,9.1E-1,-6.537208E2,2.021E3,2.021E3,2.021E3,3.3088373E2,1.0567279E3,8.211206E2,4.0138864E2,9.7229895E2,6.942104E2,8.844914E2,1.2625984E3,1.702308E3,7.3896954E2,1.4463955E3,1.9272375E3,7.7146625E2,1.3108682E3,-1.8671513E2,3.0793821E1,1.647642E2,2.7495914E2,2.5305357E2,5.2084186E2,1.2377177E3,1.9433275E3,1.7019792E2,3.581472E2,9.5789355E2,3.948032E2,7.8617633E2,5.898579E2,7.850653E2,1.1084497E3,-4.4527536E2,-3.9259494E2,-2.0734428E2,-3.7324982E2,-3.4738425E2,-2.9243784E2,-1.7941731E2,-1.0483008E2,-2.5233397E2,-1.8407222E2,-3.0327688E1,1.16757164E2,-2.3954265E2,-9.620771E0,-5.5963226E2,-5.919699E2,-5.9550385E2,-5.130713E2,-4.250975E2,-4.9812164E2,-3.9147275E2,-4.2578833E2,-3.1139874E2,-3.7309714E2,-2.4568835E2,-3.071053E2],"split_indices":[0,0,0,6,6,3,0,3,5,0,0,3,6,3,6,5,5,3,1,3,0,6,6,6,6,3,5,5,5,3,6,6,6,3,6,6,5,0,3,3,3,3,3,3,5,3,5,0,6,5,5,6,6,5,6,6,6,0,5,0,3,3,3,0,0,0,0,0,0,0,0,0,0,0,0,0,0,0,0,0,0,0,0,0,0,0,0,0,0,0,0,0,0,0,0,0,0,0,0,0,0,0,0,0,0,0,0,0,0,0,0,0,0,0,0,0,0,0,0],"split_type":[0,0,0,0,0,0,0,0,0,0,0,0,0,0,0,0,0,0,0,0,0,0,0,0,0,0,0,0,0,0,0,0,0,0,0,0,0,0,0,0,0,0,0,0,0,0,0,0,0,0,0,0,0,0,0,0,0,0,0,0,0,0,0,0,0,0,0,0,0,0,0,0,0,0,0,0,0,0,0,0,0,0,0,0,0,0,0,0,0,0,0,0,0,0,0,0,0,0,0,0,0,0,0,0,0,0,0,0,0,0,0,0,0,0,0,0,0,0,0],"sum_hessian":[3.4847E4,1.711E4,1.7737E4,5.265E3,1.1845E4,5.914E3,1.1823E4,4.939E3,3.26E2,1.0137E4,1.708E3,3.303E3,2.611E3,5.997E3,5.826E3,2.81E3,2.129E3,2.18E2,1.08E2,5.281E3,4.856E3,7.96E2,9.12E2,1.95E3,1.353E3,2.224E3,3.87E2,4.771E3,1.226E3,4.937E3,8.89E2,6.54E2,2.156E3,1.066E3,1.063E3,1.9E1,1.99E2,5.2E1,5.6E1,2.98E3,2.301E3,4.813E3,4.3E1,5.35E2,2.61E2,3.92E2,5.2E2,1.449E3,5.01E2,1.198E3,1.55E2,1.201E3,1.023E3,3.34E2,5.3E1,2.948E3,1.823E3,7.15E2,5.11E2,3.7E1,4.9E3,5.76E2,3.13E2,5.95E2,5.9E1,1.739E3,4.17E2,5.37E2,5.29E2,3.17E2,7.46E2,4E0,1.5E1,5.3E1,1.46E2,3.5E1,2.1E1,5.7E2,2.41E3,1.224E3,1.077E3,3.812E3,1.001E3,1E1,3.3E1,2.79E2,2.56E2,9.9E1,1.62E2,1.15E2,2.77E2,3.61E2,1.59E2,2.97E2,2.04E2,1E1,1.188E3,7.7E1,7.8E1,1.034E3,1.67E2,8.67E2,1.56E2,2.29E2,1.05E2,3.7E1,1.6E1,7.99E2,2.149E3,4.51E2,1.372E3,3.47E2,1.64E2,1.64E3,3.26E3,1.82E2,3.94E2,9.5E1,2.18E2],"tree_param":{"num_deleted":"0","num_feature":"7","num_nodes":"119","size_leaf_vector":"1"}},{"base_weights":[-6.7081755E-1,8.324182E3,-8.0521997E3,1.6189841E4,4.8271147E3,-6.010445E3,-9.056131E3,1.5271529E4,2.9926463E4,3.7512925E3,1.1147502E4,-8.1583643E3,-3.3246785E3,-1.0401263E4,-7.669867E3,1.27674795E4,1.867601E4,3.2858285E4,2.3952678E4,1.6578191E3,6.043203E3,7.0633857E3,1.4679712E4,-9.002157E3,-6.9691357E3,-3.8946895E3,-2.108464E0,-1.0739143E4,-9.051474E3,-7.98018E3,-6.585265E3,2.239461E4,1.1222412E4,1.5957063E4,2.18565E4,3.6992676E4,2.8056582E4,1.4543809E3,1.8487604E4,-2.3495068E2,4.0805352E3,5.803791E3,3.4591688E4,4.8753086E3,1.1445889E4,1.2139173E4,1.6565697E4,-4.6553366E2,-8.142698E3,-7.51908E3,-3.9479197E3,-3.319559E3,-4.791858E3,1.2268921E3,-1.5185828E3,-1.1088864E4,-1.0161633E4,-9.360357E3,-4.0939117E2,-6.450303E2,-7.9368853E3,-6.922717E3,-5.4971304E3,5.0987305E2,1.1854779E3,3.9412924E2,8.989367E2,1.0254786E3,7.121818E2,8.4127795E2,1.2421024E3,1.4069902E3,1.9520387E3,1.9947772E3,1.1929105E3,7.520961E2,1.1642821E3,-1.8091278E2,2.8890884E1,1.5409258E2,2.5859897E2,2.3714009E2,4.920398E2,1.1999711E3,1.8890938E3,1.6052937E2,3.369341E2,9.046707E2,3.6661792E2,5.51387E2,7.731452E2,7.347612E2,1.0562991E3,-4.2708957E2,-3.7630084E2,-3.9593158E2,-3.285178E2,-2.220783E2,-1.7059859E2,-1.0970723E2,-2.2351648E2,-2.4990318E2,-1.8060262E2,9.418069E1,-1.2527521E2,-5.6581482E1,-1.979668E2,-5.3054645E2,-5.628983E2,-5.6640875E2,-4.8642862E2,-4.8764215E2,-4.399012E2,-3.7524994E2,-4.0765677E2,-3.156528E2,-3.611756E2,-2.3086417E2,-2.934574E2],"categories":[],"categories_nodes":[],"categories_segments":[],"categories_sizes":[],"default_left":[0,0,0,0,0,0,0,0,0,0,0,0,0,0,0,0,0,0,0,0,0,0,0,0,0,0,0,0,0,0,0,0,0,0,0,0,0,0,0,0,0,0,0,0,0,0,0,0,0,0,0,0,0,0,0,0,0,0,0,0,0,0,0,0,0,0,0,0,0,0,0,0,0,0,0,0,0,0,0,0,0,0,0,0,0,0,0,0,0,0,0,0,0,0,0,0,0,0,0,0,0,0,0,0,0,0,0,0,0,0,0,0,0,0,0,0,0,0,0],"id":3,"left_children":[1,3,5,7,9,11,13,15,17,19,21,23,25,27,29,31,33,35,37,39,41,43,45,47,49,51,53,55,57,59,61,63,65,67,69,71,73,-1,75,77,79,81,83,85,87,89,91,-1,93,95,97,99,101,103,105,107,109,111,-1,-1,113,115,117,-1,-1,-1,-1,-1,-1,-1,-1,-1,-1,-1,-1,-1,-1,-1,-1,-1,-1,-1,-1,-1,-1,-1,-1,-1,-1,-1,-1,-1,-1,-1,-1,-1,-1,-1,-1,-1,-1,-1,-1,-1,-1,-1,-1,-1,-1,-1,-1,-1,-1,-1,-1,-1,-1,-1,-1],"loss_changes":[2.3333044E12,4.7069974E11,3.621847E10,6.598348E10,8.05268E10,3.3639645E10,2.2037594E10,4.1866494E10,4.975067E9,4.8579887E10,2.4752243E10,3.1904727E9,4.9146655E9,2.6469335E9,1.914667E9,4.212631E10,1.7733255E10,3.2898744E9,2.605269E9,2.4277352E10,3.283896E10,7.6251914E9,4.2213868E9,4.2611507E8,2.2133391E9,1.1270083E9,7.1195104E8,8.581939E8,2.4641536E8,8.647475E8,4.4149965E8,6.061392E9,5.530036E10,8.530133E9,1.4016381E10,9.683763E8,4.2671145E9,0E0,5.920891E8,8.1773747E9,2.5150587E9,2.049137E10,4.4490752E8,1.6410348E9,7.1410483E9,1.29604E9,4.1848013E9,0E0,6.0739584E7,3.8048154E8,4.040397E7,1.7424527E9,1.9189965E8,5.2191094E8,1.5702115E8,1.2166758E8,8.117453E8,1.0951885E8,0E0,0E0,3.5936666E8,1.364951E8,7.567667E7,0E0,0E0,0E0,0E0,0E0,0E0,0E0,0E0,0E0,0E0,0E0,0E0,0E0,0E0,0E0,0E0,0E0,0E0,0E0,0E0,0E0,0E0,0E0,0E0,0E0,0E0,0E0,0E0,0E0,0E0,0E0,0E0,0E0,0E0,0E0,0E0,0E0,0E0,0E0,0E0,0E0,0E0,0E0,0E0,0E0,0E0,0E0,0E0,0E0,0E0,0E0,0E0,0E0,0E0,0E0,0E0],"parents":[2147483647,0,0,1,1,2,2,3,3,4,4,5,5,6,6,7,7,8,8,9,9,10,10,11,11,12,12,13,13,14,14,15,15,16,16,17,17,18,18,19,19,20,20,21,21,22,22,23,23,24,24,25,25,26,26,27,27,28,28,29,29,30,30,31,31,32,32,33,33,34,34,35,35,36,36,38,38,39,39,40,40,41,41,42,42,43,43,44,44,45,45,46,46,48,48,49,49,50,50,51,51,52,52,53,53,54,54,55,55,56,56,57,57,60,60,61,61,62,62],"right_children":[2,4,6,8,10,12,14,16,18,20,22,24,26,28,30,32,34,36,38,40,42,44,46,48,50,52,54,56,58,60,62,64,66,68,70,72,74,-1,76,78,80,82,84,86,88,90,92,-1,94,96,98,100,102,104,106,108,110,112,-1,-1,114,116,118,-1,-1,-1,-1,-1,-1,-1,-1,-1,-1,-1,-1,-1,-1,-1,-1,-1,-1,-1,-1,-1,-1,-1,-1,-1,-1,-1,-1,-1,-1,-1,-1,-1,-1,-1,-1,-1,-1,-1,-1,-1,-1,-1,-1,-1,-1,-1,-1,-1,-1,-1,-1,-1,-1,-1,-1],"split_conditions":[4E0,1E0,5E0,1.3125E2,1.222E2,2.022E3,6E0,2.022E3,-2.54E0,2E0,2E0,2.021E3,1.2024E2,2.023E3,1.1942E2,3E0,-3.31E0,8E0,1.3274E2,2.022E3,3E0,1.3274E2,1.2738E2,1.1508E2,1.1E1,8E0,2.023E3,-2.61E0,9E0,2.012E3,1.3274E2,9.927E1,1E1,1.0859E2,1.0395E2,2E0,1.404E2,1.4543809E3,2.022E3,2.018E3,2.023E3,2.023E3,2.009E3,2.022E3,-5.55E0,2.023E3,-8.7E-1,-4.6553366E2,1.2259E2,8E0,1.2E1,2.023E3,1.1521E2,6.5E-1,6.5E-1,1.0811E2,1.0036E2,-3.33E0,-4.0939117E2,-6.450303E2,2.021E3,2.021E3,2.021E3,5.0987305E2,1.1854779E3,3.9412924E2,8.989367E2,1.0254786E3,7.121818E2,8.4127795E2,1.2421024E3,1.4069902E3,1.9520387E3,1.9947772E3,1.1929105E3,7.520961E2,1.1642821E3,-1.8091278E2,2.8890884E1,1.5409258E2,2.5859897E2,2.3714009E2,4.920398E2,1.1999711E3,1.8890938E3,1.6052937E2,3.369341E2,9.046707E2,3.6661792E2,5.51387E2,7.731452E2,7.347612E2,1.0562991E3,-4.2708957E2,-3.7630084E2,-3.9593158E2,-3.285178E2,-2.220783E2,-1.7059859E2,-1.0970723E2,-2.2351648E2,-2.4990318E2,-1.8060262E2,9.418069E1,-1.2527521E2,-5.6581482E1,-1.979668E2,-5.3054645E2,-5.628983E2,-5.6640875E2,-4.8642862E2,-4.8764215E2,-4.399012E2,-3.7524994E2,-4.0765677E2,-3.156528E2,-3.611756E2,-2.3086417E2,-2.934574E2],"split_indices":[0,0,0,6,6,3,0,3,5,0,0,3,6,3,6,4,5,4,6,3,0,6,6,6,4,4,3,5,4,3,6,6,4,6,6,4,6,0,3,3,3,3,3,3,5,3,5,0,6,4,4,3,6,5,5,6,6,5,0,0,3,3,3,0,0,0,0,0,0,0,0,0,0,0,0,0,0,0,0,0,0,0,0,0,0,0,0,0,0,0,0,0,0,0,0,0,0,0,0,0,0,0,0,0,0,0,0,0,0,0,0,0,0,0,0,0,0,0,0],"split_type":[0,0,0,0,0,0,0,0,0,0,0,0,0,0,0,0,0,0,0,0,0,0,0,0,0,0,0,0,0,0,0,0,0,0,0,0,0,0,0,0,0,0,0,0,0,0,0,0,0,0,0,0,0,0,0,0,0,0,0,0,0,0,0,0,0,0,0,0,0,0,0,0,0,0,0,0,0,0,0,0,0,0,0,0,0,0,0,0,0,0,0,0,0,0,0,0,0,0,0,0,0,0,0,0,0,0,0,0,0,0,0,0,0,0,0,0,0,0,0],"sum_hessian":[3.4809E4,1.7114E4,1.7695E4,5.266E3,1.1848E4,5.835E3,1.186E4,4.938E3,3.28E2,1.0126E4,1.722E3,3.241E3,2.594E3,6.016E3,5.844E3,2.848E3,2.09E3,2.17E2,1.11E2,5.293E3,4.833E3,8E2,9.22E2,1.892E3,1.349E3,2.214E3,3.8E2,4.806E3,1.21E3,4.539E3,1.305E3,3.92E2,2.456E3,1.13E3,9.6E2,1.13E2,1.04E2,5.5E1,5.6E1,2.972E3,2.321E3,4.794E3,3.9E1,5.35E2,2.65E2,3.96E2,5.26E2,1.385E3,5.07E2,1.14E3,2.09E2,1.352E3,8.62E2,2.1E2,1.7E2,2.982E3,1.824E3,8.84E2,3.26E2,3.7E1,4.502E3,9.92E2,3.13E2,3.9E1,3.53E2,1.645E3,8.11E2,3.06E2,8.24E2,3.6E2,6E2,2.4E1,8.9E1,2.5E1,7.9E1,3.5E1,2.1E1,5.75E2,2.397E3,1.214E3,1.107E3,3.798E3,9.96E2,1.1E1,2.8E1,2.84E2,2.51E2,1E2,1.65E2,3E2,9.6E1,3.76E2,1.5E2,3E2,2.07E2,7.97E2,3.43E2,1.05E2,1.04E2,6.85E2,6.67E2,7.31E2,1.31E2,1.79E2,3.1E1,1.48E2,2.2E1,7.96E2,2.186E3,4.87E2,1.337E3,5.11E2,3.73E2,1.514E3,2.988E3,3.35E2,6.57E2,9.7E1,2.16E2],"tree_param":{"num_deleted":"0","num_feature":"7","num_nodes":"119","size_leaf_vector":"1"}},{"base_weights":[3.007988E1,7.993358E3,-7.663403E3,1.5559682E4,4.602668E3,-5.7280303E3,-8.617168E3,1.4710464E4,2.8650488E4,3.5881792E3,1.0624462E4,-7.738446E3,-3.19809E3,-9.888722E3,-7.291707E3,1.2085667E4,1.8286262E4,3.1592791E4,2.2611008E4,1.5806421E3,5.7807197E3,6.878009E3,1.3956248E4,-8.553256E3,-6.573957E3,-3.7199312E3,-2.3680298E2,-1.02265E4,-8.583128E3,-7.5903066E3,-6.2546235E3,2.1261992E4,1.0594636E4,1.9639879E4,1.2961478E4,3.5794645E4,2.7216742E4,1.3995273E3,1.7577656E4,-1.6867897E2,3.8990474E3,5.5448027E3,3.2610668E4,4.7478154E3,1.0966207E4,1.1485093E4,1.5799288E4,-4.4332114E2,-7.650441E3,-7.33284E3,-4.414123E3,-3.169325E3,-4.575379E3,2.8286374E2,-4.436973E3,-7.1106305E2,-1.0200136E4,-8.862528E3,-3.9068906E2,-1.140004E4,-7.537305E3,-6.5743076E3,-5.2270015E3,1.2665565E3,6.911903E2,3.7527164E2,8.546545E2,8.029543E2,1.1941105E3,3.363069E2,7.7047406E2,1.4045875E3,1.8853284E3,1.9285131E3,1.1865922E3,6.092302E2,1.022751E3,-1.7512267E2,2.9145529E1,1.24530716E2,2.3313635E2,2.2570161E2,4.6759082E2,1.1157582E3,1.7772031E3,2.9806485E2,1.1940552E2,4.4499E2,6.9032416E2,5.2078613E2,7.3424365E2,1.2724165E3,7.595507E2,-3.6447256E2,-4.193986E2,-3.9276385E2,-3.4339914E2,-2.8111774E2,-1.8593532E2,-1.01539566E2,-2.135773E2,-2.374694E2,-1.7606253E2,7.1573494E1,-6.125641E1,-1.827754E2,-2.6158432E2,-5.14966E2,-4.6480078E2,-4.5939615E2,-4.2877267E2,-6.661188E2,-4.968259E2,-3.561257E2,-3.8692508E2,-2.9898203E2,-3.4394547E2,-2.1924022E2,-2.7747845E2],"categories":[],"categories_nodes":[],"categories_segments":[],"categories_sizes":[],"default_left":[0,0,0,0,0,0,0,0,0,0,0,0,0,0,0,0,0,0,0,0,0,0,0,0,0,0,0,0,0,0,0,0,0,0,0,0,0,0,0,0,0,0,0,0,0,0,0,0,0,0,0,0,0,0,0,0,0,0,0,0,0,0,0,0,0,0,0,0,0,0,0,0,0,0,0,0,0,0,0,0,0,0,0,0,0,0,0,0,0,0,0,0,0,0,0,0,0,0,0,0,0,0,0,0,0,0,0,0,0,0,0,0,0,0,0,0,0,0,0],"id":4,"left_children":[1,3,5,7,9,11,13,15,17,19,21,23,25,27,29,31,33,35,37,39,41,43,45,47,49,51,53,55,57,59,61,63,65,67,69,71,73,-1,75,77,79,81,83,85,87,89,91,-1,93,95,97,99,101,103,105,-1,107,109,-1,111,113,115,117,-1,-1,-1,-1,-1,-1,-1,-1,-1,-1,-1,-1,-1,-1,-1,-1,-1,-1,-1,-1,-1,-1,-1,-1,-1,-1,-1,-1,-1,-1,-1,-1,-1,-1,-1,-1,-1,-1,-1,-1,-1,-1,-1,-1,-1,-1,-1,-1,-1,-1,-1,-1,-1,-1,-1,-1],"loss_changes":[2.1367511E12,4.3960474E11,3.2694993E10,5.8531643E10,7.22685E10,2.9775495E10,1.9951976E10,4.653875E10,5.0075894E9,4.4583535E10,2.119893E10,3.040772E9,4.0107725E9,2.5851986E9,1.7551196E9,3.9124697E10,1.4932115E10,2.9607035E9,2.459394E9,2.1454965E10,3.0467326E10,6.9583954E9,3.926655E9,4.7416934E8,2.1770895E9,1.0250281E9,8.525041E8,3.6149658E8,1.9986842E8,8.257536E8,3.9500186E8,1.1786895E10,4.9577492E10,2.5106776E10,6.4599245E9,5.018501E8,3.397337E9,0E0,6.6631066E8,7.559022E9,2.4353587E9,1.8797658E10,4.752548E8,1.506259E9,1.4911447E9,1.1780997E9,2.6302218E9,0E0,7.224115E7,1.8793677E8,2.7569E8,1.6804413E9,1.4138982E8,6.0452064E8,7.579328E6,0E0,3.331195E8,6.299648E6,0E0,3.6422656E7,3.1675187E8,1.3873152E8,6.1239296E7,0E0,0E0,0E0,0E0,0E0,0E0,0E0,0E0,0E0,0E0,0E0,0E0,0E0,0E0,0E0,0E0,0E0,0E0,0E0,0E0,0E0,0E0,0E0,0E0,0E0,0E0,0E0,0E0,0E0,0E0,0E0,0E0,0E0,0E0,0E0,0E0,0E0,0E0,0E0,0E0,0E0,0E0,0E0,0E0,0E0,0E0,0E0,0E0,0E0,0E0,0E0,0E0,0E0,0E0,0E0,0E0],"parents":[2147483647,0,0,1,1,2,2,3,3,4,4,5,5,6,6,7,7,8,8,9,9,10,10,11,11,12,12,13,13,14,14,15,15,16,16,17,17,18,18,19,19,20,20,21,21,22,22,23,23,24,24,25,25,26,26,27,27,28,28,29,29,30,30,31,31,32,32,33,33,34,34,35,35,36,36,38,38,39,39,40,40,41,41,42,42,43,43,44,44,45,45,46,46,48,48,49,49,50,50,51,51,52,52,53,53,54,54,56,56,57,57,59,59,60,60,61,61,62,62],"right_children":[2,4,6,8,10,12,14,16,18,20,22,24,26,28,30,32,34,36,38,40,42,44,46,48,50,52,54,56,58,60,62,64,66,68,70,72,74,-1,76,78,80,82,84,86,88,90,92,-1,94,96,98,100,102,104,106,-1,108,110,-1,112,114,116,118,-1,-1,-1,-1,-1,-1,-1,-1,-1,-1,-1,-1,-1,-1,-1,-1,-1,-1,-1,-1,-1,-1,-1,-1,-1,-1,-1,-1,-1,-1,-1,-1,-1,-1,-1,-1,-1,-1,-1,-1,-1,-1,-1,-1,-1,-1,-1,-1,-1,-1,-1,-1,-1,-1,-1,-1],"split_conditions":[4E0,1E0,5E0,1.3125E2,1.222E2,2.022E3,6E0,2.022E3,2.5E1,2E0,2E0,2.021E3,1.2024E2,2.023E3,1.1942E2,3E0,2.7E1,8E0,1.3274E2,2.022E3,3E0,1.3274E2,1.2738E2,1.1508E2,1E1,8E0,3.1E1,2.011E3,9E0,2.015E3,1.3274E2,1.9E1,1E1,1.1E1,2.9E1,2.021E3,1.404E2,1.3995273E3,2.021E3,2.018E3,5E0,2.023E3,2.009E3,2.6E1,1.404E2,2.023E3,1.2739E2,-4.4332114E2,2.6E1,5E0,1.1E1,2.023E3,1.1521E2,2.023E3,7E0,-7.1106305E2,1.2738E2,1.1E1,-3.9068906E2,2.01E3,2.021E3,2.021E3,2.021E3,1.2665565E3,6.911903E2,3.7527164E2,8.546545E2,8.029543E2,1.1941105E3,3.363069E2,7.7047406E2,1.4045875E3,1.8853284E3,1.9285131E3,1.1865922E3,6.092302E2,1.022751E3,-1.7512267E2,2.9145529E1,1.24530716E2,2.3313635E2,2.2570161E2,4.6759082E2,1.1157582E3,1.7772031E3,2.9806485E2,1.1940552E2,4.4499E2,6.9032416E2,5.2078613E2,7.3424365E2,1.2724165E3,7.595507E2,-3.6447256E2,-4.193986E2,-3.9276385E2,-3.4339914E2,-2.8111774E2,-1.8593532E2,-1.01539566E2,-2.135773E2,-2.374694E2,-1.7606253E2,7.1573494E1,-6.125641E1,-1.827754E2,-2.6158432E2,-5.14966E2,-4.6480078E2,-4.5939615E2,-4.2877267E2,-6.661188E2,-4.968259E2,-3.561257E2,-3.8692508E2,-2.9898203E2,-3.4394547E2,-2.1924022E2,-2.7747845E2],"split_indices":[0,0,0,6,6,3,0,3,2,0,0,3,6,3,6,4,2,4,6,3,0,6,6,6,4,4,2,3,4,3,6,2,4,2,2,3,6,0,3,3,4,3,3,2,6,3,6,0,2,4,4,3,6,3,4,0,6,2,0,3,3,3,3,0,0,0,0,0,0,0,0,0,0,0,0,0,0,0,0,0,0,0,0,0,0,0,0,0,0,0,0,0,0,0,0,0,0,0,0,0,0,0,0,0,0,0,0,0,0,0,0,0,0,0,0,0,0,0,0],"split_type":[0,0,0,0,0,0,0,0,0,0,0,0,0,0,0,0,0,0,0,0,0,0,0,0,0,0,0,0,0,0,0,0,0,0,0,0,0,0,0,0,0,0,0,0,0,0,0,0,0,0,0,0,0,0,0,0,0,0,0,0,0,0,0,0,0,0,0,0,0,0,0,0,0,0,0,0,0,0,0,0,0,0,0,0,0,0,0,0,0,0,0,0,0,0,0,0,0,0,0,0,0,0,0,0,0,0,0,0,0,0,0,0,0,0,0,0,0,0,0],"sum_hessian":[3.4875E4,1.7137E4,1.7738E4,5.302E3,1.1835E4,5.858E3,1.188E4,4.981E3,3.21E2,1.013E4,1.705E3,3.263E3,2.595E3,6.06E3,5.82E3,2.875E3,2.106E3,2.13E2,1.08E2,5.289E3,4.841E3,8.04E2,9.01E2,1.916E3,1.347E3,2.206E3,3.89E2,4.809E3,1.251E3,4.514E3,1.306E3,4E2,2.475E3,1.677E3,4.29E2,1.05E2,1.08E2,5E1,5.8E1,3.015E3,2.274E3,4.8E3,4.1E1,5.3E2,2.74E2,3.88E2,5.13E2,1.416E3,5E2,9.95E2,3.52E2,1.345E3,8.61E2,3.47E2,4.2E1,2.8E1,4.781E3,9.1E2,3.41E2,5.9E1,4.455E3,9.92E2,3.14E2,2.57E2,1.43E2,1.679E3,7.96E2,9.12E2,7.65E2,1.22E2,3.07E2,2.4E1,8.1E1,2.3E1,8.5E1,2.2E1,3.6E1,5.54E2,2.461E3,8.01E2,1.473E3,3.779E3,1.021E3,1.1E1,3E1,3.49E2,1.81E2,1.61E2,1.13E2,2.94E2,9.4E1,2.8E1,4.85E2,3.43E2,1.57E2,4.61E2,5.34E2,1.26E2,2.26E2,6.63E2,6.82E2,7.36E2,1.25E2,1.97E2,1.5E2,2.4E1,1.8E1,4.299E3,4.82E2,4.12E2,4.98E2,2.2E1,3.7E1,1.467E3,2.988E3,3.43E2,6.49E2,9.1E1,2.23E2],"tree_param":{"num_deleted":"0","num_feature":"7","num_nodes":"119","size_leaf_vector":"1"}},{"base_weights":[-2.4900574E1,-5.938464E2,3.2251907E3,-1.5760697E3,7.010256E2,1.9322983E3,4.81839E3,-2.5994858E3,-3.3039697E2,-2.934828E2,1.9824741E3,1.3234786E3,4.195171E3,3.5999915E3,6.3044937E3,-7.9440436E2,-3.3995588E3,-2.1697307E3,1.7993418E3,6.761086E3,-4.4738815E2,3.281435E2,4.0967314E3,2.1061895E3,-2.7842707E1,1.2540831E3,5.233876E3,4.313571E3,2.334242E3,3.6498733E3,6.686785E3,9.345826E2,-1.3768542E3,-4.134971E3,-1.4576442E3,-2.3820972E3,-1.8484543E2,2.9472324E3,-2.2103413E3,5.2304844E3,8.88893E3,5.668549E2,-1.072275E3,-3.3073276E2,1.3709138E3,5.1858525E3,-1.4315991E3,1.5757926E3,4.6971216E3,6.131976E2,-1.5286407E3,2.0579292E3,-1.9018649E3,5.592251E3,2.3902773E3,5.978009E3,3.6641536E3,4.2295415E3,1.9102537E3,4.146448E3,1.5283892E3,6.9505493E3,5.0856533E3,9.553708E1,-4.4461487E1,-5.3218025E1,-1.9166539E2,-1.4056232E2,-2.4852676E2,-1.1122216E1,-1.2844757E2,-6.521766E1,-1.4650648E2,8.975992E1,-6.555483E1,7.129821E1,1.9267499E2,1.1679806E2,-1.4651048E2,1.9363823E2,3.2520053E2,5.9033453E2,2.8466934E2,-4.978531E1,4.380276E1,-1.385726E2,-3.578837E1,3.9299226E0,-7.731145E1,1.6165112E0,1.4878516E2,1.6415688E2,3.115903E2,-1.1189569E2,2.8615091E1,1.2991211E2,1.877041E1,3.505112E2,1.009085E2,-1.0328001E1,1.0572184E2,2.1628372E1,-9.474628E1,-4.7651134E0,1.5741667E2,-1.2972151E2,-3.1840033E1,2.2254121E2,3.3015768E2,6.336457E1,2.137011E2,2.1653287E2,4.274791E2,2.416576E2,1.4112129E2,-6.831833E1,2.5905856E2,-1.3080118E2,1.04502335E2,1.3292433E2,2.5265257E2,1.2344924E1,2.9862204E2,2.9656598E2,3.6796548E2,1.9955878E2,2.880427E2],"categories":[],"categories_nodes":[],"categories_segments":[],"categories_sizes":[],"default_left":[0,0,0,0,0,0,0,0,0,0,0,0,0,0,0,0,0,0,0,0,0,0,0,0,0,0,0,0,0,0,0,0,0,0,0,0,0,0,0,0,0,0,0,0,0,0,0,0,0,0,0,0,0,0,0,0,0,0,0,0,0,0,0,0,0,0,0,0,0,0,0,0,0,0,0,0,0,0,0,0,0,0,0,0,0,0,0,0,0,0,0,0,0,0,0,0,0,0,0,0,0,0,0,0,0,0,0,0,0,0,0,0,0,0,0,0,0,0,0,0,0,0,0,0,0,0,0],"id":5,"left_children":[1,3,5,7,9,11,13,15,17,19,21,23,25,27,29,31,33,35,37,39,41,43,45,47,49,51,53,55,57,59,61,63,65,67,69,71,73,75,77,79,81,83,85,87,89,91,93,95,97,99,101,103,105,107,109,111,113,115,117,119,121,123,125,-1,-1,-1,-1,-1,-1,-1,-1,-1,-1,-1,-1,-1,-1,-1,-1,-1,-1,-1,-1,-1,-1,-1,-1,-1,-1,-1,-1,-1,-1,-1,-1,-1,-1,-1,-1,-1,-1,-1,-1,-1,-1,-1,-1,-1,-1,-1,-1,-1,-1,-1,-1,-1,-1,-1,-1,-1,-1,-1,-1,-1,-1,-1,-1],"loss_changes":[6.449387E10,3.775226E10,1.0693595E10,2.1517197E10,1.6318143E10,3.9483914E9,4.19072E9,1.3379224E10,2.983023E10,7.8311803E9,1.9568175E10,2.3936205E9,1.8508298E9,1.1469455E9,1.0381312E9,2.8683533E9,9.162416E9,1.7219031E9,1.6249362E10,4.5506458E8,4.473244E9,2.1578112E9,1.4795059E10,1.961858E9,8.0041926E8,4.098174E8,4.4419686E8,8.6228275E8,3.647831E8,1.3482778E8,3.5065037E8,1.2799766E9,1.630964E9,5.135827E9,2.4222208E9,2.1762273E9,8.854442E8,3.7775933E9,2.5792172E9,1.3388723E8,5.201797E8,1.3010132E9,2.643412E9,9.578872E8,2.612048E9,4.0633344E9,6.5566957E8,1.4607775E9,1.4916465E9,7.1790714E8,1.7969158E8,3.008306E8,2.7260136E7,4.298496E8,1.045848E8,9.2884736E8,5.678894E8,4.543995E8,3.1552256E8,1.3225664E8,1.5229008E8,2.8214886E8,7.529242E7,0E0,0E0,0E0,0E0,0E0,0E0,0E0,0E0,0E0,0E0,0E0,0E0,0E0,0E0,0E0,0E0,0E0,0E0,0E0,0E0,0E0,0E0,0E0,0E0,0E0,0E0,0E0,0E0,0E0,0E0,0E0,0E0,0E0,0E0,0E0,0E0,0E0,0E0,0E0,0E0,0E0,0E0,0E0,0E0,0E0,0E0,0E0,0E0,0E0,0E0,0E0,0E0,0E0,0E0,0E0,0E0,0E0,0E0,0E0,0E0,0E0,0E0,0E0,0E0],"parents":[2147483647,0,0,1,1,2,2,3,3,4,4,5,5,6,6,7,7,8,8,9,9,10,10,11,11,12,12,13,13,14,14,15,15,16,16,17,17,18,18,19,19,20,20,21,21,22,22,23,23,24,24,25,25,26,26,27,27,28,28,29,29,30,30,31,31,32,32,33,33,34,34,35,35,36,36,37,37,38,38,39,39,40,40,41,41,42,42,43,43,44,44,45,45,46,46,47,47,48,48,49,49,50,50,51,51,52,52,53,53,54,54,55,55,56,56,57,57,58,58,59,59,60,60,61,61,62,62],"right_children":[2,4,6,8,10,12,14,16,18,20,22,24,26,28,30,32,34,36,38,40,42,44,46,48,50,52,54,56,58,60,62,64,66,68,70,72,74,76,78,80,82,84,86,88,90,92,94,96,98,100,102,104,106,108,110,112,114,116,118,120,122,124,126,-1,-1,-1,-1,-1,-1,-1,-1,-1,-1,-1,-1,-1,-1,-1,-1,-1,-1,-1,-1,-1,-1,-1,-1,-1,-1,-1,-1,-1,-1,-1,-1,-1,-1,-1,-1,-1,-1,-1,-1,-1,-1,-1,-1,-1,-1,-1,-1,-1,-1,-1,-1,-1,-1,-1,-1,-1,-1,-1,-1,-1,-1,-1,-1],"split_conditions":[1.222E2,2.022E3,1.3125E2,-3.33E0,-3.33E0,2.023E3,2.022E3,5E0,1.0444E2,-8.66E0,1.0526E2,2.4E1,4E0,2.5E1,2E1,1.0693E2,1.1E1,1.2E1,1.8E1,8E0,1.0898E2,8E0,1.7E1,6.5E-1,7.7E-1,7.9E-1,9.1E-1,1.3689E2,2.017E3,1E1,1.1E1,-5.67E0,-5.54E0,1.0898E2,1.106E2,5E0,2.017E3,1.3E1,1.0478E2,2.023E3,-9.65E0,3E0,3E0,3.3E0,2.023E3,1.1037E2,2.9E1,8E0,7.9E-1,2.022E3,2.018E3,2E0,3E0,-3.84E0,9E0,9E0,7E0,8E0,2.018E3,5E0,1.2E1,1.3407E2,1.3689E2,9.553708E1,-4.4461487E1,-5.3218025E1,-1.9166539E2,-1.4056232E2,-2.4852676E2,-1.1122216E1,-1.2844757E2,-6.521766E1,-1.4650648E2,8.975992E1,-6.555483E1,7.129821E1,1.9267499E2,1.1679806E2,-1.4651048E2,1.9363823E2,3.2520053E2,5.9033453E2,2.8466934E2,-4.978531E1,4.380276E1,-1.385726E2,-3.578837E1,3.9299226E0,-7.731145E1,1.6165112E0,1.4878516E2,1.6415688E2,3.115903E2,-1.1189569E2,2.8615091E1,1.2991211E2,1.877041E1,3.505112E2,1.009085E2,-1.0328001E1,1.0572184E2,2.1628372E1,-9.474628E1,-4.7651134E0,1.5741667E2,-1.2972151E2,-3.1840033E1,2.2254121E2,3.3015768E2,6.336457E1,2.137011E2,2.1653287E2,4.274791E2,2.416576E2,1.4112129E2,-6.831833E1,2.5905856E2,-1.3080118E2,1.04502335E2,1.3292433E2,2.5265257E2,1.2344924E1,2.9862204E2,2.9656598E2,3.6796548E2,1.9955878E2,2.880427E2],"split_indices":[6,3,6,5,5,3,3,4,6,5,6,2,4,2,2,6,4,4,2,4,6,4,2,5,5,5,5,6,3,4,4,5,5,6,6,4,3,2,6,3,5,4,4,5,3,6,2,4,5,3,3,4,4,5,4,4,4,4,3,4,4,6,6,0,0,0,0,0,0,0,0,0,0,0,0,0,0,0,0,0,0,0,0,0,0,0,0,0,0,0,0,0,0,0,0,0,0,0,0,0,0,0,0,0,0,0,0,0,0,0,0,0,0,0,0,0,0,0,0,0,0,0,0,0,0,0,0],"split_type":[0,0,0,0,0,0,0,0,0,0,0,0,0,0,0,0,0,0,0,0,0,0,0,0,0,0,0,0,0,0,0,0,0,0,0,0,0,0,0,0,0,0,0,0,0,0,0,0,0,0,0,0,0,0,0,0,0,0,0,0,0,0,0,0,0,0,0,0,0,0,0,0,0,0,0,0,0,0,0,0,0,0,0,0,0,0,0,0,0,0,0,0,0,0,0,0,0,0,0,0,0,0,0,0,0,0,0,0,0,0,0,0,0,0,0,0,0,0,0,0,0,0,0,0,0,0,0],"sum_hessian":[3.4876E4,2.9681E4,5.195E3,1.6878E4,1.2803E4,2.869E3,2.326E3,9.265E3,7.613E3,7.209E3,5.594E3,2.262E3,6.07E2,1.28E3,1.046E3,2.846E3,6.419E3,4.085E3,3.528E3,1.53E2,7.056E3,3.139E3,2.455E3,1.432E3,8.3E2,1.59E2,4.48E2,8.17E2,4.63E2,1.33E2,9.13E2,7.17E2,2.129E3,4.655E3,1.764E3,3.69E3,3.95E2,2.743E3,7.85E2,9.1E1,6.2E1,2.69E3,4.366E3,1.924E3,1.215E3,2.051E3,4.04E2,1.19E3,2.42E2,5.82E2,2.48E2,1.27E2,3.2E1,3.97E2,5.1E1,2.27E2,5.9E2,8.3E1,3.8E2,1.07E2,2.6E1,7.81E2,1.32E2,4.67E2,2.5E2,1.89E3,2.39E2,1.803E3,2.852E3,8.36E2,9.28E2,1.245E3,2.445E3,1.43E2,2.52E2,1.025E3,1.718E3,1.07E2,6.78E2,4.6E1,4.5E1,3.1E1,3.1E1,4.44E2,2.246E3,7.56E2,3.61E3,1.44E3,4.84E2,6.63E2,5.52E2,7.29E2,1.322E3,2.88E2,1.16E2,6.42E2,5.48E2,1.29E2,1.13E2,3.77E2,2.05E2,3.9E1,2.09E2,4.3E1,8.4E1,2E1,1.2E1,1.89E2,2.08E2,3.3E1,1.8E1,1.4E2,8.7E1,2.45E2,3.45E2,1.2E1,7.1E1,1.4E1,3.66E2,4.2E1,6.5E1,2.1E1,5E0,2.28E2,5.53E2,5.3E1,7.9E1],"tree_param":{"num_deleted":"0","num_feature":"7","num_nodes":"127","size_leaf_vector":"1"}},{"base_weights":[-6.4368553E0,-5.280621E2,2.9760974E3,-1.5402245E3,7.881606E2,2.1369583E3,5.212087E3,-2.4147324E3,-4.7799338E2,-1.0946718E2,1.9470088E3,1.5507367E3,4.3480293E3,3.909422E3,6.6068374E3,-5.8013354E2,-3.226743E3,-2.254967E3,1.3190099E3,7.220572E3,-2.7197342E2,2.1585104E2,4.0631638E3,1.1082893E3,3.1643855E3,2.1900745E3,5.15532E3,4.8037754E3,2.719674E3,7.354508E3,5.7843164E3,1.1938684E3,-1.1304155E3,-3.8975134E3,-1.456535E3,-7.100661E3,-2.1512878E3,2.0019756E3,-2.5914355E3,8.905636E3,5.650151E3,5.81302E2,-1.00178015E3,-5.569497E2,1.00932794E3,4.9279814E3,-7.205905E2,3.640999E3,7.243394E2,4.413472E3,1.3962546E3,4.8748857E3,1.3939678E3,5.5172104E3,1.5816749E3,1.1176506E3,5.2147363E3,9.6647723E2,3.5033748E3,8.115647E3,6.547257E3,6.6795854E3,4.134433E3,1.1466853E2,-3.7730167E1,-4.295987E1,-1.5827237E2,-1.423462E2,-2.4142403E2,1.6925024E0,-1.16914894E2,-2.7287616E2,-5.432029E2,-1.266012E2,-5.810088E1,4.9640403E0,1.2348151E2,-1.5790538E2,-9.672509E1,3.129708E2,5.762496E2,3.294762E2,1.351649E2,-5.0733196E1,4.5355362E1,-1.3956375E2,-3.1064337E1,5.1455334E1,-4.6725006E1,-1.2362038E1,1.2705086E2,2.226855E2,4.1227002E2,-1.352439E2,-1.3309687E1,-1.0019747E1,2.3469156E2,8.864687E1,4.5896096E0,1.8870735E2,2.7852924E2,-1.059687E1,1.2315035E2,4.1357504E2,6.4163536E1,-8.9986867E-1,1.07920425E2,2.9636908E2,1.4228027E2,1.3985251E2,2.5806814E1,8.875337E1,1.3643146E1,3.1500623E2,2.1246011E2,1.18894714E2,-1.2686851E1,1.5166862E2,2.8602942E2,3.513041E2,5.0362115E2,2.0800316E2,3.7710312E2,2.691262E2,3.921984E2,-9.4517784E1,2.265703E2],"categories":[],"categories_nodes":[],"categories_segments":[],"categories_sizes":[],"default_left":[0,0,0,0,0,0,0,0,0,0,0,0,0,0,0,0,0,0,0,0,0,0,0,0,0,0,0,0,0,0,0,0,0,0,0,0,0,0,0,0,0,0,0,0,0,0,0,0,0,0,0,0,0,0,0,0,0,0,0,0,0,0,0,0,0,0,0,0,0,0,0,0,0,0,0,0,0,0,0,0,0,0,0,0,0,0,0,0,0,0,0,0,0,0,0,0,0,0,0,0,0,0,0,0,0,0,0,0,0,0,0,0,0,0,0,0,0,0,0,0,0,0,0,0,0,0,0],"id":6,"left_children":[1,3,5,7,9,11,13,15,17,19,21,23,25,27,29,31,33,35,37,39,41,43,45,47,49,51,53,55,57,59,61,63,65,67,69,71,73,75,77,79,81,83,85,87,89,91,93,95,97,99,101,103,105,107,109,111,113,115,117,119,121,123,125,-1,-1,-1,-1,-1,-1,-1,-1,-1,-1,-1,-1,-1,-1,-1,-1,-1,-1,-1,-1,-1,-1,-1,-1,-1,-1,-1,-1,-1,-1,-1,-1,-1,-1,-1,-1,-1,-1,-1,-1,-1,-1,-1,-1,-1,-1,-1,-1,-1,-1,-1,-1,-1,-1,-1,-1,-1,-1,-1,-1,-1,-1,-1,-1],"loss_changes":[5.399129E10,3.935265E10,9.681859E9,1.551011E10,1.3357603E10,4.86429E9,2.5341747E9,1.3640929E10,2.4083102E10,8.622512E9,2.0532472E10,2.1183662E9,1.3597389E9,7.64758E8,3.750277E8,2.7454518E9,7.53195E9,1.8898166E9,1.0020313E10,3.6514304E8,4.4101064E9,1.8916695E9,1.0437251E10,2.2670218E9,1.4050995E9,4.5488147E8,7.3102336E8,6.243502E8,4.3079194E8,1.6314163E8,4.5686784E8,1.428535E9,1.1817382E9,4.488282E9,2.2946135E9,4.29226E8,1.3959393E9,2.8408996E9,2.016146E8,4.407813E8,2.1471386E8,1.6986358E9,2.5972262E9,9.3691136E8,2.9299804E9,3.3239654E9,3.482197E8,1.2425544E9,1.3449846E9,2.5564928E8,4.5685648E8,5.871519E8,1.8137213E8,5.518602E8,6.848758E7,2.3396676E7,3.6517274E8,1.7110448E8,2.0982298E8,3.065979E8,3.8658714E8,2.764462E8,2.90784E8,0E0,0E0,0E0,0E0,0E0,0E0,0E0,0E0,0E0,0E0,0E0,0E0,0E0,0E0,0E0,0E0,0E0,0E0,0E0,0E0,0E0,0E0,0E0,0E0,0E0,0E0,0E0,0E0,0E0,0E0,0E0,0E0,0E0,0E0,0E0,0E0,0E0,0E0,0E0,0E0,0E0,0E0,0E0,0E0,0E0,0E0,0E0,0E0,0E0,0E0,0E0,0E0,0E0,0E0,0E0,0E0,0E0,0E0,0E0,0E0,0E0,0E0,0E0,0E0],"parents":[2147483647,0,0,1,1,2,2,3,3,4,4,5,5,6,6,7,7,8,8,9,9,10,10,11,11,12,12,13,13,14,14,15,15,16,16,17,17,18,18,19,19,20,20,21,21,22,22,23,23,24,24,25,25,26,26,27,27,28,28,29,29,30,30,31,31,32,32,33,33,34,34,35,35,36,36,37,37,38,38,39,39,40,40,41,41,42,42,43,43,44,44,45,45,46,46,47,47,48,48,49,49,50,50,51,51,52,52,53,53,54,54,55,55,56,56,57,57,58,58,59,59,60,60,61,61,62,62],"right_children":[2,4,6,8,10,12,14,16,18,20,22,24,26,28,30,32,34,36,38,40,42,44,46,48,50,52,54,56,58,60,62,64,66,68,70,72,74,76,78,80,82,84,86,88,90,92,94,96,98,100,102,104,106,108,110,112,114,116,118,120,122,124,126,-1,-1,-1,-1,-1,-1,-1,-1,-1,-1,-1,-1,-1,-1,-1,-1,-1,-1,-1,-1,-1,-1,-1,-1,-1,-1,-1,-1,-1,-1,-1,-1,-1,-1,-1,-1,-1,-1,-1,-1,-1,-1,-1,-1,-1,-1,-1,-1,-1,-1,-1,-1,-1,-1,-1,-1,-1,-1,-1,-1,-1,-1,-1,-1],"split_conditions":[1.222E2,2.022E3,1.3407E2,-3.33E0,-3.33E0,2.023E3,2.022E3,5E0,1.0395E2,-8.66E0,1.0526E2,1.83E2,4E0,1.19E2,2.023E3,1.0691E2,1.1E1,2.009E3,1.1872E2,2.6E1,1.1044E2,2.023E3,1.1872E2,3.5E1,2.09E2,4.8E1,9.1E-1,2.018E3,-8.46E0,7E0,1.19E2,-5.67E0,-6.23E0,1.1043E2,1.0898E2,9E0,1E1,1.0526E2,1.17E2,7E0,1E1,3E0,3E0,9.867E1,7E0,9.3E-1,3E0,2E0,6E0,2.08E2,2.15E2,-5E-1,1.01E2,1.3274E2,4.2E1,1E1,7E0,7E0,1.1E1,5E0,3.3E1,7E0,2E0,1.1466853E2,-3.7730167E1,-4.295987E1,-1.5827237E2,-1.423462E2,-2.4142403E2,1.6925024E0,-1.16914894E2,-2.7287616E2,-5.432029E2,-1.266012E2,-5.810088E1,4.9640403E0,1.2348151E2,-1.5790538E2,-9.672509E1,3.129708E2,5.762496E2,3.294762E2,1.351649E2,-5.0733196E1,4.5355362E1,-1.3956375E2,-3.1064337E1,5.1455334E1,-4.6725006E1,-1.2362038E1,1.2705086E2,2.226855E2,4.1227002E2,-1.352439E2,-1.3309687E1,-1.0019747E1,2.3469156E2,8.864687E1,4.5896096E0,1.8870735E2,2.7852924E2,-1.059687E1,1.2315035E2,4.1357504E2,6.4163536E1,-8.9986867E-1,1.07920425E2,2.9636908E2,1.4228027E2,1.3985251E2,2.5806814E1,8.875337E1,1.3643146E1,3.1500623E2,2.1246011E2,1.18894714E2,-1.2686851E1,1.5166862E2,2.8602942E2,3.513041E2,5.0362115E2,2.0800316E2,3.7710312E2,2.691262E2,3.921984E2,-9.4517784E1,2.265703E2],"split_indices":[6,3,6,5,5,3,3,4,6,5,6,1,4,1,3,6,4,3,6,1,6,3,6,1,1,1,5,3,5,4,1,5,5,6,6,4,4,6,1,4,4,4,4,6,4,5,4,1,4,1,1,5,1,6,1,4,4,4,4,4,1,4,4,0,0,0,0,0,0,0,0,0,0,0,0,0,0,0,0,0,0,0,0,0,0,0,0,0,0,0,0,0,0,0,0,0,0,0,0,0,0,0,0,0,0,0,0,0,0,0,0,0,0,0,0,0,0,0,0,0,0,0,0,0,0,0,0],"split_type":[0,0,0,0,0,0,0,0,0,0,0,0,0,0,0,0,0,0,0,0,0,0,0,0,0,0,0,0,0,0,0,0,0,0,0,0,0,0,0,0,0,0,0,0,0,0,0,0,0,0,0,0,0,0,0,0,0,0,0,0,0,0,0,0,0,0,0,0,0,0,0,0,0,0,0,0,0,0,0,0,0,0,0,0,0,0,0,0,0,0,0,0,0,0,0,0,0,0,0,0,0,0,0,0,0,0,0,0,0,0,0,0,0,0,0,0,0,0,0,0,0,0,0,0,0,0,0],"sum_hessian":[3.4702E4,2.9537E4,5.165E3,1.6697E4,1.284E4,3.757E3,1.408E3,9.157E3,7.54E3,7.236E3,5.604E3,2.971E3,7.86E2,7.3E2,6.78E2,2.81E3,6.347E3,3.791E3,3.749E3,1.56E2,7.08E3,3.083E3,2.521E3,2.333E3,6.38E2,2.15E2,5.71E2,4.15E2,3.15E2,3.51E2,3.27E2,6.65E2,2.145E3,4.602E3,1.745E3,7.8E1,3.713E3,3.192E3,5.57E2,7.3E1,8.3E1,3.264E3,3.816E3,1.562E3,1.521E3,2.135E3,3.86E2,3.06E2,2.027E3,3.73E2,2.65E2,4.8E1,1.67E2,5.18E2,5.3E1,4.2E1,3.73E2,9.8E1,2.17E2,1.76E2,1.75E2,2.1E2,1.17E2,4.25E2,2.4E2,1.894E3,2.51E2,2.164E3,2.438E3,6.49E2,1.096E3,5.6E1,2.2E1,2.68E3,1.033E3,6.3E2,2.562E3,2.97E2,2.6E2,3.8E1,3.5E1,6.2E1,2.1E1,5.53E2,2.711E3,6.68E2,3.148E3,3E2,1.262E3,8.36E2,6.85E2,1.87E3,2.65E2,7.1E1,3.15E2,6.6E1,2.4E2,7.62E2,1.265E3,2.43E2,1.3E2,1.06E2,1.59E2,2.4E1,2.4E1,5.9E1,1.08E2,4.48E2,7E1,2.4E1,2.9E1,2.3E1,1.9E1,1.73E2,2E2,4.5E1,5.3E1,1.81E2,3.6E1,1.16E2,6E1,5.3E1,1.22E2,1.02E2,1.08E2,7E0,1.1E2],"tree_param":{"num_deleted":"0","num_feature":"7","num_nodes":"127","size_leaf_vector":"1"}},{"base_weights":[2.5567682E1,7.552931E3,-7.236265E3,1.4607159E4,4.433389E3,-5.4068667E3,-8.1347515E3,1.3814635E4,2.6771348E4,2.16222E3,6.819529E3,-5.686494E3,-3.69505E3,-9.368754E3,-6.8956406E3,9.771988E3,1.5399241E4,2.9264102E4,2.13127E4,1.6892643E3,8.346147E3,5.659583E3,1.3130925E4,-3.9750522E2,-5.6417305E3,-1.6326611E3,-3.9300574E3,-9.650349E3,-8.984074E3,-7.1451255E3,-6.1257314E3,8.540403E3,2.1453994E4,1.8470027E4,1.0048487E4,2.2342475E4,3.1590291E4,1.3087572E3,1.5537757E4,-2.775017E2,1.8034161E3,1.5688316E4,6.0873965E3,5.399489E3,1.5628126E3,1.1573116E4,1.4814562E4,-5.800287E3,-5.245219E3,-6.1358315E1,-2.9352004E3,2.1310146E2,-4.051533E3,-9.419753E3,-1.0350422E4,-4.9210153E2,-8.730501E3,-4.796856E2,-7.08876E3,-6.3171523E3,-5.473544E3,7.082683E2,3.7423172E2,6.06084E2,1.1655995E3,7.271213E2,1.0794276E3,6.319834E2,3.2059113E2,1.3174946E3,7.7836896E2,1.7444525E3,1.3883192E3,6.450461E2,8.7377826E2,6.5597275E1,1.5853453E2,6.111335E2,9.7831573E2,2.236248E2,3.4177463E2,1.6690944E2,3.0117902E2,6.1263885E2,3.0488602E2,6.730754E2,9.450203E2,-2.5657767E2,-2.9523416E2,-1.6383531E2,-2.6492383E2,-7.078216E1,6.1567696E1,-1.9471788E2,-4.167149E1,4.056684E1,-2.9295233E1,-2.36745E2,-1.7086833E2,-4.734117E2,-3.9209424E2,-4.7935245E2,-5.2608453E2,-4.1182593E2,-4.6611172E2,-2.8101727E2,-3.5684738E2,-3.1065256E2,-3.5047006E2,-2.5019292E2,-2.8572736E2],"categories":[],"categories_nodes":[],"categories_segments":[],"categories_sizes":[],"default_left":[0,0,0,0,0,0,0,0,0,0,0,0,0,0,0,0,0,0,0,0,0,0,0,0,0,0,0,0,0,0,0,0,0,0,0,0,0,0,0,0,0,0,0,0,0,0,0,0,0,0,0,0,0,0,0,0,0,0,0,0,0,0,0,0,0,0,0,0,0,0,0,0,0,0,0,0,0,0,0,0,0,0,0,0,0,0,0,0,0,0,0,0,0,0,0,0,0,0,0,0,0,0,0,0,0,0,0,0,0,0,0],"id":7,"left_children":[1,3,5,7,9,11,13,15,17,19,21,23,25,27,29,31,33,35,37,39,41,43,45,-1,47,49,51,53,55,57,59,61,63,65,67,69,71,-1,73,-1,75,77,79,81,-1,83,85,87,89,91,93,95,97,99,101,-1,103,-1,105,107,109,-1,-1,-1,-1,-1,-1,-1,-1,-1,-1,-1,-1,-1,-1,-1,-1,-1,-1,-1,-1,-1,-1,-1,-1,-1,-1,-1,-1,-1,-1,-1,-1,-1,-1,-1,-1,-1,-1,-1,-1,-1,-1,-1,-1,-1,-1,-1,-1,-1,-1],"loss_changes":[1.9058611E12,3.7667727E11,2.912492E10,5.023282E10,6.4323486E10,2.7782676E9,1.8129682E10,3.1431066E10,3.7305385E9,1.777992E10,4.2306257E10,4.6430618E8,3.929559E8,5.587927E8,1.0973676E9,1.9829629E10,5.798016E10,2.788098E9,2.5136497E9,4.6815304E9,7.06884E9,3.2399933E10,2.183807E9,0E0,2.7957658E8,1.7583443E8,3.7279744E8,4.5573734E8,4.6515814E8,5.5043686E8,1.4781645E8,7.376683E9,2.0062167E9,2.7220312E10,1.2103221E10,1.1645358E9,1.0495099E9,0E0,3.0029824E7,0E0,3.7360538E9,1.1182592E9,3.7051597E8,6.211404E9,0E0,1.6780698E9,2.1117174E9,2.1494989E8,1.3140787E8,7.177119E7,9.150246E7,1.0991249E7,2.949765E8,1.2378112E8,8.822784E6,0E0,4.9730355E8,0E0,2.7009024E8,3.7376E7,9.778176E6,0E0,0E0,0E0,0E0,0E0,0E0,0E0,0E0,0E0,0E0,0E0,0E0,0E0,0E0,0E0,0E0,0E0,0E0,0E0,0E0,0E0,0E0,0E0,0E0,0E0,0E0,0E0,0E0,0E0,0E0,0E0,0E0,0E0,0E0,0E0,0E0,0E0,0E0,0E0,0E0,0E0,0E0,0E0,0E0,0E0,0E0,0E0,0E0,0E0,0E0],"parents":[2147483647,0,0,1,1,2,2,3,3,4,4,5,5,6,6,7,7,8,8,9,9,10,10,11,11,12,12,13,13,14,14,15,15,16,16,17,17,18,18,19,19,20,20,21,21,22,22,24,24,25,25,26,26,27,27,28,28,29,29,30,30,31,31,32,32,33,33,34,34,35,35,36,36,38,38,40,40,41,41,42,42,43,43,45,45,46,46,47,47,48,48,49,49,50,50,51,51,52,52,53,53,54,54,56,56,58,58,59,59,60,60],"right_children":[2,4,6,8,10,12,14,16,18,20,22,24,26,28,30,32,34,36,38,40,42,44,46,-1,48,50,52,54,56,58,60,62,64,66,68,70,72,-1,74,-1,76,78,80,82,-1,84,86,88,90,92,94,96,98,100,102,-1,104,-1,106,108,110,-1,-1,-1,-1,-1,-1,-1,-1,-1,-1,-1,-1,-1,-1,-1,-1,-1,-1,-1,-1,-1,-1,-1,-1,-1,-1,-1,-1,-1,-1,-1,-1,-1,-1,-1,-1,-1,-1,-1,-1,-1,-1,-1,-1,-1,-1,-1,-1,-1,-1],"split_conditions":[4E0,1E0,5E0,1.3125E2,2E0,1.2024E2,6E0,-6.93E0,2.5E1,1.2738E2,1.2222E2,9.532E1,7E0,-3.33E0,1.1872E2,2.3E1,2.1E1,-8.46E0,1.3274E2,9.532E1,-5.55E0,3E0,1.3125E2,-3.9750522E2,1.1148E2,7E0,1.2026E2,2E1,1.0036E2,9.532E1,1.3274E2,3E0,-1.015E1,1E1,1.0526E2,9E0,8E0,1.3087572E3,1.3407E2,-2.775017E2,-4E-2,2E1,-3.54E0,-7.43E0,1.5628126E3,1.2818E2,-8.7E-1,9.927E1,1.1152E2,4E0,5.7E-1,8E0,1.3125E2,1.3125E2,-8.6E0,-4.9210153E2,1.1653E2,-4.796856E2,9.714E1,6.5E-1,1.3687E2,7.082683E2,3.7423172E2,6.06084E2,1.1655995E3,7.271213E2,1.0794276E3,6.319834E2,3.2059113E2,1.3174946E3,7.7836896E2,1.7444525E3,1.3883192E3,6.450461E2,8.7377826E2,6.5597275E1,1.5853453E2,6.111335E2,9.7831573E2,2.236248E2,3.4177463E2,1.6690944E2,3.0117902E2,6.1263885E2,3.0488602E2,6.730754E2,9.450203E2,-2.5657767E2,-2.9523416E2,-1.6383531E2,-2.6492383E2,-7.078216E1,6.1567696E1,-1.9471788E2,-4.167149E1,4.056684E1,-2.9295233E1,-2.36745E2,-1.7086833E2,-4.734117E2,-3.9209424E2,-4.7935245E2,-5.2608453E2,-4.1182593E2,-4.6611172E2,-2.8101727E2,-3.5684738E2,-3.1065256E2,-3.5047006E2,-2.5019292E2,-2.8572736E2],"split_indices":[0,0,0,6,0,6,0,5,2,6,6,6,2,5,6,2,2,5,6,6,5,0,6,0,6,4,6,2,6,6,6,4,5,2,6,4,4,0,6,0,5,2,5,5,0,6,5,6,6,4,5,4,6,6,5,0,6,0,6,5,6,0,0,0,0,0,0,0,0,0,0,0,0,0,0,0,0,0,0,0,0,0,0,0,0,0,0,0,0,0,0,0,0,0,0,0,0,0,0,0,0,0,0,0,0,0,0,0,0,0,0],"split_type":[0,0,0,0,0,0,0,0,0,0,0,0,0,0,0,0,0,0,0,0,0,0,0,0,0,0,0,0,0,0,0,0,0,0,0,0,0,0,0,0,0,0,0,0,0,0,0,0,0,0,0,0,0,0,0,0,0,0,0,0,0,0,0,0,0,0,0,0,0,0,0,0,0,0,0,0,0,0,0,0,0,0,0,0,0,0,0,0,0,0,0,0,0,0,0,0,0,0,0,0,0,0,0,0,0,0,0,0,0,0,0],"sum_hessian":[3.4864E4,1.7119E4,1.7745E4,5.248E3,1.1871E4,5.847E3,1.1898E4,4.929E3,3.19E2,6.083E3,5.788E3,5.024E3,8.23E2,5.958E3,5.94E3,1.39E3,3.539E3,2.16E2,1.03E2,5.652E3,4.31E2,4.891E3,8.97E2,9.4E1,4.93E3,8.5E1,7.38E2,3.426E3,2.532E3,4.48E3,1.46E3,1.259E3,1.31E2,2.247E3,1.292E3,5.7E1,1.59E2,5.4E1,4.9E1,8.7E1,5.565E3,1E2,3.31E2,4.843E3,4.8E1,4.7E2,4.27E2,3.512E3,1.418E3,3.9E1,4.6E1,2.1E1,7.17E2,2.588E3,8.38E2,5.69E2,1.963E3,9.7E1,4.383E3,1.122E3,3.38E2,1.97E2,1.062E3,2.3E1,1.08E2,9.97E2,1.25E3,7.53E2,5.39E2,3.4E1,2.3E1,8.1E1,7.8E1,2.4E1,2.5E1,4.095E3,1.47E3,5.5E1,4.5E1,1.07E2,2.24E2,1.127E3,3.716E3,4.17E2,5.3E1,3.24E2,1.03E2,4.81E2,3.031E3,3.9E1,1.379E3,1.9E1,2E1,3.1E1,1.5E1,1.2E1,9E0,3.42E2,3.75E2,2.506E3,8.2E1,1.64E2,6.74E2,1.078E3,8.85E2,1.43E2,4.24E3,9.84E2,1.38E2,1.22E2,2.16E2],"tree_param":{"num_deleted":"0","num_feature":"7","num_nodes":"111","size_leaf_vector":"1"}},{"base_weights":[4.393424E0,7.120246E3,-6.8801016E3,1.377305E4,4.1296514E3,-5.1311553E3,-7.7445522E3,1.3016782E4,2.557649E4,2.0074027E3,6.389401E3,-6.952768E3,-2.9077007E3,-8.901102E3,-6.5544307E3,1.0788298E4,1.6008827E4,2.8040334E4,2.0640271E4,3.8481793E2,4.0723672E3,5.260803E3,1.2558225E4,-7.7356304E3,-5.843245E3,-3.3327822E3,-4.7390396E2,-9.182163E3,-7.8116367E3,-6.7762812E3,-5.7772656E3,1.9343607E4,9.377138E3,1.3268076E4,1.8278627E4,3.2206076E4,2.356787E4,1.268791E3,1.5791852E4,-3.3631226E1,6.265375E3,3.6109575E3,9.491019E3,1.184573E4,4.486411E3,1.0971533E4,1.4353209E4,-3.9825983E2,-3.5363165E2,-6.5838345E3,-3.735972E3,-2.7943203E3,-4.154913E3,-4.0713955E1,-4.202569E3,-6.117031E2,-9.159622E3,-4.0247507E2,-3.5687808E2,-5.24511E2,-6.737619E3,-5.0987573E3,-6.108338E3,1.0975819E3,4.9184903E2,3.5772656E2,8.784051E2,5.138049E2,7.7691516E2,9.645299E2,3.949048E2,1.2603644E3,1.7139492E3,1.6686237E3,9.959299E2,5.92768E2,1.0355276E3,-1.5376735E2,3.4468212E1,2.1800938E2,5.8707605E2,1.3548116E2,2.3176868E2,4.3333658E2,5.977701E2,5.178916E2,1.4516196E3,1.620248E2,4.3272702E2,6.7422626E2,4.9225607E2,6.569567E2,8.3869543E2,-3.580649E2,-3.0437573E2,-2.4603308E2,-1.5599828E2,-8.759174E1,-1.9065231E2,-2.1618489E2,-1.5547444E2,5.5723427E1,-7.162104E1,-1.0268014E2,-2.2219946E2,-4.4634152E2,-4.697385E2,-3.136448E2,-3.4871802E2,-3.3777634E2,-2.4376163E2,-3.1785153E2,-2.7726657E2],"categories":[],"categories_nodes":[],"categories_segments":[],"categories_sizes":[],"default_left":[0,0,0,0,0,0,0,0,0,0,0,0,0,0,0,0,0,0,0,0,0,0,0,0,0,0,0,0,0,0,0,0,0,0,0,0,0,0,0,0,0,0,0,0,0,0,0,0,0,0,0,0,0,0,0,0,0,0,0,0,0,0,0,0,0,0,0,0,0,0,0,0,0,0,0,0,0,0,0,0,0,0,0,0,0,0,0,0,0,0,0,0,0,0,0,0,0,0,0,0,0,0,0,0,0,0,0,0,0,0,0,0,0],"id":8,"left_children":[1,3,5,7,9,11,13,15,17,19,21,23,25,27,29,31,33,35,37,39,41,43,45,47,49,51,53,55,57,59,61,63,65,67,69,71,73,-1,75,77,79,81,83,85,87,89,91,-1,-1,93,95,97,99,101,103,-1,105,-1,-1,-1,107,109,111,-1,-1,-1,-1,-1,-1,-1,-1,-1,-1,-1,-1,-1,-1,-1,-1,-1,-1,-1,-1,-1,-1,-1,-1,-1,-1,-1,-1,-1,-1,-1,-1,-1,-1,-1,-1,-1,-1,-1,-1,-1,-1,-1,-1,-1,-1,-1,-1,-1,-1],"loss_changes":[1.7075624E12,3.4095786E11,2.6744652E10,4.71118E10,5.6701714E10,2.3726539E10,1.6257974E10,3.314588E10,3.3009172E9,2.043697E10,3.980601E10,2.7534295E9,2.731731E9,1.7682268E9,9.688023E8,3.4431664E10,1.3014401E10,3.1535104E9,2.1248573E9,8.408472E9,6.676316E9,2.4642814E10,2.3630643E9,2.307113E8,2.0619592E9,9.839923E8,6.3622534E8,2.1613773E8,1.412055E8,5.815009E8,2.6200064E8,9.825452E9,4.471392E10,6.4222167E9,1.2064719E10,6.7374285E8,3.0921277E9,0E0,8.5812326E8,7.019597E9,2.3171123E9,2.2727107E9,3.229696E8,1.2715442E10,2.2484197E10,1.2089754E9,9.904374E8,0E0,0E0,2.3956685E8,2.400686E8,1.4397727E9,1.4324429E8,5.707135E8,1.2144128E7,0E0,1.7560371E8,0E0,0E0,0E0,4.5113344E8,1.2778701E8,8.684134E7,0E0,0E0,0E0,0E0,0E0,0E0,0E0,0E0,0E0,0E0,0E0,0E0,0E0,0E0,0E0,0E0,0E0,0E0,0E0,0E0,0E0,0E0,0E0,0E0,0E0,0E0,0E0,0E0,0E0,0E0,0E0,0E0,0E0,0E0,0E0,0E0,0E0,0E0,0E0,0E0,0E0,0E0,0E0,0E0,0E0,0E0,0E0,0E0,0E0,0E0],"parents":[2147483647,0,0,1,1,2,2,3,3,4,4,5,5,6,6,7,7,8,8,9,9,10,10,11,11,12,12,13,13,14,14,15,15,16,16,17,17,18,18,19,19,20,20,21,21,22,22,23,23,24,24,25,25,26,26,27,27,28,28,29,29,30,30,31,31,32,32,33,33,34,34,35,35,36,36,38,38,39,39,40,40,41,41,42,42,43,43,44,44,45,45,46,46,49,49,50,50,51,51,52,52,53,53,54,54,56,56,60,60,61,61,62,62],"right_children":[2,4,6,8,10,12,14,16,18,20,22,24,26,28,30,32,34,36,38,40,42,44,46,48,50,52,54,56,58,60,62,64,66,68,70,72,74,-1,76,78,80,82,84,86,88,90,92,-1,-1,94,96,98,100,102,104,-1,106,-1,-1,-1,108,110,112,-1,-1,-1,-1,-1,-1,-1,-1,-1,-1,-1,-1,-1,-1,-1,-1,-1,-1,-1,-1,-1,-1,-1,-1,-1,-1,-1,-1,-1,-1,-1,-1,-1,-1,-1,-1,-1,-1,-1,-1,-1,-1,-1,-1,-1,-1,-1,-1,-1,-1],"split_conditions":[4E0,1E0,5E0,1.3125E2,2E0,2.022E3,6E0,2.022E3,2.5E1,2.022E3,1.2222E2,2.021E3,1.2024E2,2.023E3,1.1942E2,3E0,6E0,8E0,1.3274E2,1.2738E2,1.2738E2,2.018E3,1.3125E2,1.1508E2,1E1,8E0,3.1E1,2.012E3,9E0,2.013E3,2.021E3,2.7E1,1.1E1,1.1E1,1.2E1,2.021E3,1.404E2,1.268791E3,2.022E3,2.018E3,1.404E2,2.023E3,1.404E2,3E0,2.023E3,2.021E3,2.5E1,-3.9825983E2,-3.5363165E2,5E0,1.1E1,2.023E3,1.1521E2,2.023E3,2E0,-6.117031E2,1.1084E2,-4.0247507E2,-3.5687808E2,-5.24511E2,2.021E3,3E0,1.3125E2,1.0975819E3,4.9184903E2,3.5772656E2,8.784051E2,5.138049E2,7.7691516E2,9.645299E2,3.949048E2,1.2603644E3,1.7139492E3,1.6686237E3,9.959299E2,5.92768E2,1.0355276E3,-1.5376735E2,3.4468212E1,2.1800938E2,5.8707605E2,1.3548116E2,2.3176868E2,4.3333658E2,5.977701E2,5.178916E2,1.4516196E3,1.620248E2,4.3272702E2,6.7422626E2,4.9225607E2,6.569567E2,8.3869543E2,-3.580649E2,-3.0437573E2,-2.4603308E2,-1.5599828E2,-8.759174E1,-1.9065231E2,-2.1618489E2,-1.5547444E2,5.5723427E1,-7.162104E1,-1.0268014E2,-2.2219946E2,-4.4634152E2,-4.697385E2,-3.136448E2,-3.4871802E2,-3.3777634E2,-2.4376163E2,-3.1785153E2,-2.7726657E2],"split_indices":[0,0,0,6,0,3,0,3,2,3,6,3,6,3,6,4,4,4,6,6,6,3,6,6,4,4,2,3,4,3,3,2,4,2,4,3,6,0,3,3,6,3,6,0,3,3,2,0,0,4,4,3,6,3,4,0,6,0,0,0,3,4,6,0,0,0,0,0,0,0,0,0,0,0,0,0,0,0,0,0,0,0,0,0,0,0,0,0,0,0,0,0,0,0,0,0,0,0,0,0,0,0,0,0,0,0,0,0,0,0,0,0,0],"split_type":[0,0,0,0,0,0,0,0,0,0,0,0,0,0,0,0,0,0,0,0,0,0,0,0,0,0,0,0,0,0,0,0,0,0,0,0,0,0,0,0,0,0,0,0,0,0,0,0,0,0,0,0,0,0,0,0,0,0,0,0,0,0,0,0,0,0,0,0,0,0,0,0,0,0,0,0,0,0,0,0,0,0,0,0,0,0,0,0,0,0,0,0,0,0,0,0,0,0,0,0,0,0,0,0,0,0,0,0,0,0,0,0,0],"sum_hessian":[3.4854E4,1.7139E4,1.7715E4,5.314E3,1.1825E4,5.862E3,1.1853E4,4.996E3,3.18E2,6.099E3,5.726E3,3.221E3,2.641E3,6.008E3,5.845E3,2.866E3,2.13E3,2.09E2,1.09E2,3.416E3,2.683E3,4.842E3,8.84E2,1.885E3,1.336E3,2.248E3,3.93E2,4.77E3,1.238E3,4.541E3,1.304E3,4.04E2,2.462E3,9.68E2,1.162E3,1.05E2,1.04E2,5.3E1,5.6E1,3.19E3,2.26E2,2.474E3,2.09E2,5.08E2,4.334E3,4.73E2,4.11E2,1.392E3,4.93E2,9.87E2,3.49E2,1.361E3,8.87E2,3.53E2,4E1,3.1E1,4.739E3,9.07E2,3.31E2,4.4E1,4.497E3,4.33E2,8.71E2,3.16E2,8.8E1,1.938E3,5.24E2,4.2E2,5.48E2,1.058E3,1.04E2,2.7E1,7.8E1,2.6E1,7.8E1,3.3E1,2.3E1,6.12E2,2.578E3,1.69E2,5.7E1,1.318E3,1.156E3,1.6E2,4.9E1,4.69E2,3.9E1,3.338E3,9.96E2,1.43E2,3.3E2,2.78E2,1.33E2,4.5E2,5.37E2,1.17E2,2.32E2,6.74E2,6.87E2,7.61E2,1.26E2,1.93E2,1.6E2,5E0,3.5E1,2.401E3,2.338E3,1.527E3,2.97E3,4.8E1,3.85E2,5.97E2,2.74E2],"tree_param":{"num_deleted":"0","num_feature":"7","num_nodes":"113","size_leaf_vector":"1"}},{"base_weights":[3.751161E0,6.812148E3,-6.543389E3,1.327467E4,3.9428022E3,-4.880576E3,-7.365004E3,1.2603179E4,2.3677975E4,1.9927571E3,5.9871313E3,-6.609707E3,-2.676271E3,-8.452399E3,-6.238908E3,1.0554117E4,1.5411368E4,2.6817256E4,2.0349094E4,4.3211536E2,3.920483E3,4.97316E3,1.1676875E4,-7.328207E3,-5.598672E3,-3.0905962E3,-3.1723016E2,-8.712283E3,-7.4416294E3,-6.4505605E3,-5.4899453E3,1.6698459E4,8.635689E3,1.2646118E4,1.768438E4,2.9909996E4,2.0703879E4,1.5790448E3,1.9293781E4,-6.808645E1,4.838785E3,3.4435923E3,9.545483E3,4.7550015E3,2.7885537E4,1.0727607E4,1.4833306E4,-3.7707254E2,-3.3659006E2,-6.263909E3,-3.6476572E3,-2.5825818E3,-3.9066306E3,7.2629803E2,-1.5465773E3,-6.015246E2,-8.690283E3,-3.831159E2,-3.405544E2,-9.391751E3,-6.406467E3,-4.8000913E3,-5.816335E3,9.326344E2,4.628373E2,2.587195E2,7.311207E2,6.955957E2,4.0311374E2,9.35033E2,3.7002054E2,1.0351766E3,1.5927771E3,8.169871E2,1.3980269E3,8.238644E2,1.1551538E3,-1.4799149E2,3.0869589E1,1.7339944E2,5.60044E2,1.0430428E2,2.0866682E2,4.2167682E2,6.070763E2,1.9172298E2,4.0615512E2,9.859897E2,1.5420902E3,6.800222E2,4.553802E2,4.5560815E2,8.222949E2,-3.4016513E2,-2.8966476E2,-2.3641435E2,-1.529297E2,-8.1535774E1,-1.7867822E2,-2.0801895E2,-1.6379883E2,9.759502E1,-7.0799965E1,-6.102891E1,-2.1052144E2,-4.22629E2,-4.464216E2,-5.649473E2,-4.1465094E2,-2.9684146E2,-3.3194144E2,-3.1693842E2,-2.2995413E2,-3.019999E2,-2.6499664E2],"categories":[],"categories_nodes":[],"categories_segments":[],"categories_sizes":[],"default_left":[0,0,0,0,0,0,0,0,0,0,0,0,0,0,0,0,0,0,0,0,0,0,0,0,0,0,0,0,0,0,0,0,0,0,0,0,0,0,0,0,0,0,0,0,0,0,0,0,0,0,0,0,0,0,0,0,0,0,0,0,0,0,0,0,0,0,0,0,0,0,0,0,0,0,0,0,0,0,0,0,0,0,0,0,0,0,0,0,0,0,0,0,0,0,0,0,0,0,0,0,0,0,0,0,0,0,0,0,0,0,0,0,0,0,0],"id":9,"left_children":[1,3,5,7,9,11,13,15,17,19,21,23,25,27,29,31,33,35,37,39,41,43,45,47,49,51,53,55,57,59,61,63,65,67,69,71,73,-1,75,77,79,81,83,85,87,89,91,-1,-1,93,95,97,99,101,103,-1,105,-1,-1,107,109,111,113,-1,-1,-1,-1,-1,-1,-1,-1,-1,-1,-1,-1,-1,-1,-1,-1,-1,-1,-1,-1,-1,-1,-1,-1,-1,-1,-1,-1,-1,-1,-1,-1,-1,-1,-1,-1,-1,-1,-1,-1,-1,-1,-1,-1,-1,-1,-1,-1,-1,-1,-1,-1],"loss_changes":[1.5518078E12,3.164061E11,2.420985E10,3.6355637E10,4.71089E10,2.2363636E10,1.4489616E10,2.8211085E10,2.7670282E9,1.8202675E10,3.3230406E10,2.3489085E9,2.5236685E9,1.5214838E9,8.9001165E8,3.3497252E10,1.2837487E10,2.4058757E9,1.2634644E9,7.3734595E9,7.228678E9,2.4355234E10,2.4536433E9,1.9342131E8,1.7565614E9,9.00694E8,4.9758957E8,2.4569446E8,1.2063539E8,5.2938342E8,2.6321715E8,9.687384E9,4.50358E10,5.347721E9,1.1755291E10,1.2032819E9,1.348264E9,0E0,1.1964621E9,5.95842E9,2.9350615E9,2.464901E9,5.066875E8,1.5018582E10,5.0224742E8,3.0129275E9,1.6860897E9,0E0,0E0,2.197586E8,2.0896973E8,1.2742072E9,1.2095283E8,5.5414086E8,1.4943786E8,0E0,1.9454362E8,0E0,0E0,4.250317E7,4.4969165E8,1.0105651E8,6.881894E7,0E0,0E0,0E0,0E0,0E0,0E0,0E0,0E0,0E0,0E0,0E0,0E0,0E0,0E0,0E0,0E0,0E0,0E0,0E0,0E0,0E0,0E0,0E0,0E0,0E0,0E0,0E0,0E0,0E0,0E0,0E0,0E0,0E0,0E0,0E0,0E0,0E0,0E0,0E0,0E0,0E0,0E0,0E0,0E0,0E0,0E0,0E0,0E0,0E0,0E0,0E0,0E0],"parents":[2147483647,0,0,1,1,2,2,3,3,4,4,5,5,6,6,7,7,8,8,9,9,10,10,11,11,12,12,13,13,14,14,15,15,16,16,17,17,18,18,19,19,20,20,21,21,22,22,23,23,24,24,25,25,26,26,27,27,28,28,29,29,30,30,31,31,32,32,33,33,34,34,35,35,36,36,38,38,39,39,40,40,41,41,42,42,43,43,44,44,45,45,46,46,49,49,50,50,51,51,52,52,53,53,54,54,56,56,59,59,60,60,61,61,62,62],"right_children":[2,4,6,8,10,12,14,16,18,20,22,24,26,28,30,32,34,36,38,40,42,44,46,48,50,52,54,56,58,60,62,64,66,68,70,72,74,-1,76,78,80,82,84,86,88,90,92,-1,-1,94,96,98,100,102,104,-1,106,-1,-1,108,110,112,114,-1,-1,-1,-1,-1,-1,-1,-1,-1,-1,-1,-1,-1,-1,-1,-1,-1,-1,-1,-1,-1,-1,-1,-1,-1,-1,-1,-1,-1,-1,-1,-1,-1,-1,-1,-1,-1,-1,-1,-1,-1,-1,-1,-1,-1,-1,-1,-1,-1,-1,-1,-1],"split_conditions":[4E0,1E0,5E0,1.3125E2,2E0,2.022E3,6E0,2.022E3,8E0,2.022E3,1.2222E2,2.021E3,1.2024E2,2.023E3,1.1942E2,4E0,6E0,2.5E1,2E1,1.2306E2,1.2738E2,3E0,2.023E3,1.1508E2,1E1,8E0,2.023E3,2.011E3,9E0,2.016E3,2.021E3,2.7E1,1E1,2.7E1,1.2E1,2E0,5E0,1.5790448E3,2.022E3,2.018E3,1.404E2,5E0,1.404E2,2.023E3,2.009E3,2.021E3,4E0,-3.7707254E2,-3.3659006E2,5E0,1.1E1,2.023E3,1.1148E2,9E0,3.1E1,-6.015246E2,1.1084E2,-3.831159E2,-3.405544E2,2.01E3,2.021E3,3E0,1.3125E2,9.326344E2,4.628373E2,2.587195E2,7.311207E2,6.955957E2,4.0311374E2,9.35033E2,3.7002054E2,1.0351766E3,1.5927771E3,8.169871E2,1.3980269E3,8.238644E2,1.1551538E3,-1.4799149E2,3.0869589E1,1.7339944E2,5.60044E2,1.0430428E2,2.0866682E2,4.2167682E2,6.070763E2,1.9172298E2,4.0615512E2,9.859897E2,1.5420902E3,6.800222E2,4.553802E2,4.5560815E2,8.222949E2,-3.4016513E2,-2.8966476E2,-2.3641435E2,-1.529297E2,-8.1535774E1,-1.7867822E2,-2.0801895E2,-1.6379883E2,9.759502E1,-7.0799965E1,-6.102891E1,-2.1052144E2,-4.22629E2,-4.464216E2,-5.649473E2,-4.1465094E2,-2.9684146E2,-3.3194144E2,-3.1693842E2,-2.2995413E2,-3.019999E2,-2.6499664E2],"split_indices":[0,0,0,6,0,3,0,3,4,3,6,3,6,3,6,4,4,2,2,6,6,0,3,6,4,4,3,3,4,3,3,2,4,2,4,4,4,0,3,3,6,4,6,3,3,3,4,0,0,4,4,3,6,4,2,0,6,0,0,3,3,4,6,0,0,0,0,0,0,0,0,0,0,0,0,0,0,0,0,0,0,0,0,0,0,0,0,0,0,0,0,0,0,0,0,0,0,0,0,0,0,0,0,0,0,0,0,0,0,0,0,0,0,0,0],"split_type":[0,0,0,0,0,0,0,0,0,0,0,0,0,0,0,0,0,0,0,0,0,0,0,0,0,0,0,0,0,0,0,0,0,0,0,0,0,0,0,0,0,0,0,0,0,0,0,0,0,0,0,0,0,0,0,0,0,0,0,0,0,0,0,0,0,0,0,0,0,0,0,0,0,0,0,0,0,0,0,0,0,0,0,0,0,0,0,0,0,0,0,0,0,0,0,0,0,0,0,0,0,0,0,0,0,0,0,0,0,0,0,0,0,0,0],"sum_hessian":[3.4811E4,1.7065E4,1.7746E4,5.246E3,1.1819E4,5.871E3,1.1875E4,4.93E3,3.16E2,6.05E3,5.769E3,3.289E3,2.582E3,6.038E3,5.837E3,2.853E3,2.077E3,1.59E2,1.57E2,3.344E3,2.706E3,4.898E3,8.71E2,1.919E3,1.37E3,2.196E3,3.86E2,4.797E3,1.241E3,4.545E3,1.292E3,6.77E2,2.176E3,9.4E2,1.137E3,1.03E2,5.6E1,1.1E1,1.46E2,3.004E3,3.4E2,2.496E3,2.1E2,4.853E3,4.5E1,6.73E2,1.98E2,1.405E3,5.14E2,1.02E3,3.5E2,1.356E3,8.4E2,2.09E2,1.77E2,2.8E1,4.769E3,9.11E2,3.3E2,6.4E1,4.481E3,4.2E2,8.72E2,5.35E2,1.42E2,1.38E3,7.96E2,7.35E2,2.05E2,1.034E3,1.03E2,2E1,8.3E1,3.7E1,1.9E1,8.7E1,5.9E1,5.75E2,2.429E3,2.81E2,5.9E1,8.74E2,1.622E3,1.5E2,6E1,3.813E3,1.04E3,1.4E1,3.1E1,2.4E2,4.33E2,4.5E1,1.53E2,4.69E2,5.51E2,1.21E2,2.29E2,6.93E2,6.63E2,5.95E2,2.45E2,1.33E2,7.6E1,1.59E2,1.8E1,2.405E3,2.364E3,2E1,4.4E1,1.492E3,2.989E3,4.5E1,3.75E2,6.01E2,2.71E2],"tree_param":{"num_deleted":"0","num_feature":"7","num_nodes":"115","size_leaf_vector":"1"}},{"base_weights":[-7.4676365E-1,6.453302E3,-6.209935E3,1.2543566E4,3.7722388E3,-4.648451E3,-6.98969E3,1.1851714E4,2.3306666E4,1.8369608E3,5.7834663E3,-6.307699E3,-2.583174E3,-8.0259595E3,-5.916577E3,9.9687E3,1.43416E4,2.5545068E4,1.8607895E4,3.8486035E2,3.6912131E3,4.768039E3,1.1348261E4,-6.9811753E3,-5.3289644E3,-2.93795E3,-2.8137045E2,-8.272157E3,-7.0653896E3,-6.1199526E3,-5.2145845E3,1.5620198E4,8.210847E3,1.5485962E4,1.0027657E4,1.2987951E4,2.6654652E4,1.1231731E3,1.4085069E4,-9.599425E1,4.783384E3,3.2723416E3,8.75746E3,4.561224E3,2.6564271E4,9.282219E3,1.2777268E4,-3.5939285E2,-3.1926123E2,-5.7826895E3,-2.873808E3,-2.3658662E3,-3.5575493E3,1.8767711E2,-3.6672432E3,-5.7425757E2,-8.251498E3,-3.6341257E2,-3.240242E2,-9.186477E3,-6.079271E3,-4.5479873E3,-5.526295E3,3.244824E2,8.559907E2,2.3368053E2,7.147895E2,6.111127E2,9.7695966E2,2.2463542E2,6.0878534E2,1.2085989E3,4.690096E2,1.4840098E3,1.144796E3,5.172291E2,9.27275E2,-1.4024014E2,2.6983683E1,1.7770021E2,5.169159E2,1.1986483E2,2.1106538E2,3.9135083E2,5.612778E2,1.8484848E2,3.914343E2,9.2796497E2,1.457767E3,4.1754794E2,6.0027356E2,1.1055603E3,6.0946625E2,-3.1313193E2,-2.536303E2,-1.7117906E2,-1.12636986E2,-7.559211E1,-1.7788817E2,-1.8922743E2,-1.5148463E2,6.5336205E1,-5.4297432E1,-1.4470976E2,-2.2456969E2,-4.0087585E2,-4.22757E2,-5.453759E2,-3.9397726E2,-2.815712E2,-3.1504968E2,-3.0566077E2,-2.1706685E2,-2.8715765E2,-2.5179344E2],"categories":[],"categories_nodes":[],"categories_segments":[],"categories_sizes":[],"default_left":[0,0,0,0,0,0,0,0,0,0,0,0,0,0,0,0,0,0,0,0,0,0,0,0,0,0,0,0,0,0,0,0,0,0,0,0,0,0,0,0,0,0,0,0,0,0,0,0,0,0,0,0,0,0,0,0,0,0,0,0,0,0,0,0,0,0,0,0,0,0,0,0,0,0,0,0,0,0,0,0,0,0,0,0,0,0,0,0,0,0,0,0,0,0,0,0,0,0,0,0,0,0,0,0,0,0,0,0,0,0,0,0,0,0,0],"id":10,"left_children":[1,3,5,7,9,11,13,15,17,19,21,23,25,27,29,31,33,35,37,39,41,43,45,47,49,51,53,55,57,59,61,63,65,67,69,71,73,-1,75,77,79,81,83,85,87,89,91,-1,-1,93,95,97,99,101,103,-1,105,-1,-1,107,109,111,113,-1,-1,-1,-1,-1,-1,-1,-1,-1,-1,-1,-1,-1,-1,-1,-1,-1,-1,-1,-1,-1,-1,-1,-1,-1,-1,-1,-1,-1,-1,-1,-1,-1,-1,-1,-1,-1,-1,-1,-1,-1,-1,-1,-1,-1,-1,-1,-1,-1,-1,-1,-1],"loss_changes":[1.3947896E12,2.786128E11,2.1566063E10,3.856466E10,4.6116848E10,2.0239557E10,1.3106807E10,2.2844735E10,2.827223E9,1.6264337E10,3.2781763E10,2.1228421E9,2.1509816E9,1.3640008E9,7.982776E8,2.7638727E10,1.0256187E10,2.5797673E9,1.5145943E9,7.1683656E9,5.6012923E9,2.2039093E10,2.5267405E9,1.9280691E8,1.476096E9,8.008192E8,5.613004E8,2.2265856E8,9.931162E7,5.0590515E8,2.4768922E8,8.953201E9,4.5865157E10,2.1786755E10,5.236052E9,5.3989504E8,1.503912E9,0E0,6.5904435E8,5.2636483E9,2.2441825E9,2.0259901E9,3.7601382E8,1.3726368E10,4.1299763E8,8.3807846E8,2.622554E9,0E0,0E0,3.5334144E8,6.433229E7,1.205932E9,1.1961958E8,4.4467088E8,1.4395904E7,0E0,1.5879373E8,0E0,0E0,4.2261504E7,4.061102E8,1.1060429E8,6.573056E7,0E0,0E0,0E0,0E0,0E0,0E0,0E0,0E0,0E0,0E0,0E0,0E0,0E0,0E0,0E0,0E0,0E0,0E0,0E0,0E0,0E0,0E0,0E0,0E0,0E0,0E0,0E0,0E0,0E0,0E0,0E0,0E0,0E0,0E0,0E0,0E0,0E0,0E0,0E0,0E0,0E0,0E0,0E0,0E0,0E0,0E0,0E0,0E0,0E0,0E0,0E0,0E0],"parents":[2147483647,0,0,1,1,2,2,3,3,4,4,5,5,6,6,7,7,8,8,9,9,10,10,11,11,12,12,13,13,14,14,15,15,16,16,17,17,18,18,19,19,20,20,21,21,22,22,23,23,24,24,25,25,26,26,27,27,28,28,29,29,30,30,31,31,32,32,33,33,34,34,35,35,36,36,38,38,39,39,40,40,41,41,42,42,43,43,44,44,45,45,46,46,49,49,50,50,51,51,52,52,53,53,54,54,56,56,59,59,60,60,61,61,62,62],"right_children":[2,4,6,8,10,12,14,16,18,20,22,24,26,28,30,32,34,36,38,40,42,44,46,48,50,52,54,56,58,60,62,64,66,68,70,72,74,-1,76,78,80,82,84,86,88,90,92,-1,-1,94,96,98,100,102,104,-1,106,-1,-1,108,110,112,114,-1,-1,-1,-1,-1,-1,-1,-1,-1,-1,-1,-1,-1,-1,-1,-1,-1,-1,-1,-1,-1,-1,-1,-1,-1,-1,-1,-1,-1,-1,-1,-1,-1,-1,-1,-1,-1,-1,-1,-1,-1,-1,-1,-1,-1,-1,-1,-1,-1,-1,-1,-1],"split_conditions":[4E0,1E0,5E0,1.3125E2,2E0,2.022E3,6E0,2.022E3,2.5E1,2.022E3,1.2222E2,2.021E3,1.222E2,2.023E3,1.1942E2,4E0,2.7E1,2.017E3,1.3274E2,1.2306E2,1.2738E2,3E0,1.2738E2,1.1508E2,1.1E1,2.023E3,3.1E1,2.011E3,9E0,2.015E3,2.021E3,2.02E3,1E1,1.1E1,2.9E1,2E1,8E0,1.1231731E3,2.022E3,2.018E3,1.404E2,2.023E3,1.404E2,2.023E3,2.009E3,2.023E3,1.2739E2,-3.5939285E2,-3.1926123E2,7E0,1.2E1,8E0,1.1148E2,2.023E3,7E0,-5.7425757E2,1.106E2,-3.6341257E2,-3.240242E2,2.01E3,2.021E3,3E0,1.3125E2,3.244824E2,8.559907E2,2.3368053E2,7.147895E2,6.111127E2,9.7695966E2,2.2463542E2,6.0878534E2,1.2085989E3,4.690096E2,1.4840098E3,1.144796E3,5.172291E2,9.27275E2,-1.4024014E2,2.6983683E1,1.7770021E2,5.169159E2,1.1986483E2,2.1106538E2,3.9135083E2,5.612778E2,1.8484848E2,3.914343E2,9.2796497E2,1.457767E3,4.1754794E2,6.0027356E2,1.1055603E3,6.0946625E2,-3.1313193E2,-2.536303E2,-1.7117906E2,-1.12636986E2,-7.559211E1,-1.7788817E2,-1.8922743E2,-1.5148463E2,6.5336205E1,-5.4297432E1,-1.4470976E2,-2.2456969E2,-4.0087585E2,-4.22757E2,-5.453759E2,-3.9397726E2,-2.815712E2,-3.1504968E2,-3.0566077E2,-2.1706685E2,-2.8715765E2,-2.5179344E2],"split_indices":[0,0,0,6,0,3,0,3,2,3,6,3,6,3,6,4,2,3,6,6,6,0,6,6,4,3,2,3,4,3,3,3,4,2,2,2,4,0,3,3,6,3,6,3,3,3,6,0,0,4,4,4,6,3,4,0,6,0,0,3,3,4,6,0,0,0,0,0,0,0,0,0,0,0,0,0,0,0,0,0,0,0,0,0,0,0,0,0,0,0,0,0,0,0,0,0,0,0,0,0,0,0,0,0,0,0,0,0,0,0,0,0,0,0,0],"split_type":[0,0,0,0,0,0,0,0,0,0,0,0,0,0,0,0,0,0,0,0,0,0,0,0,0,0,0,0,0,0,0,0,0,0,0,0,0,0,0,0,0,0,0,0,0,0,0,0,0,0,0,0,0,0,0,0,0,0,0,0,0,0,0,0,0,0,0,0,0,0,0,0,0,0,0,0,0,0,0,0,0,0,0,0,0,0,0,0,0,0,0,0,0,0,0,0,0,0,0,0,0,0,0,0,0,0,0,0,0,0,0,0,0,0,0],"sum_hessian":[3.4803E4,1.7065E4,1.7738E4,5.215E3,1.185E4,5.91E3,1.1828E4,4.902E3,3.13E2,6.04E3,5.81E3,3.276E3,2.634E3,6.014E3,5.814E3,2.794E3,2.108E3,2.09E2,1.04E2,3.388E3,2.652E3,4.915E3,8.95E2,1.937E3,1.339E3,2.282E3,3.52E2,4.781E3,1.233E3,4.502E3,1.312E3,6.61E2,2.133E3,1.664E3,4.44E2,1.8E1,1.91E2,5.4E1,5E1,3.055E3,3.33E2,2.451E3,2.01E2,4.87E3,4.5E1,3.69E2,5.26E2,1.43E3,5.07E2,1.129E3,2.1E2,1.189E3,1.093E3,3.1E2,4.2E1,2.7E1,4.754E3,9.07E2,3.26E2,5.6E1,4.446E3,4.23E2,8.89E2,9.4E1,5.67E2,1.35E3,7.83E2,9.24E2,7.4E2,1.25E2,3.19E2,3E0,1.5E1,1.02E2,8.9E1,2.9E1,2.1E1,5.8E2,2.475E3,2.74E2,5.9E1,1.277E3,1.174E3,1.49E2,5.2E1,3.853E3,1.017E3,1.3E1,3.2E1,2.78E2,9.1E1,2.9E1,4.97E2,6.69E2,4.6E2,1.09E2,1.01E2,6.94E2,4.95E2,7.6E2,3.33E2,1.65E2,1.45E2,2.4E1,1.8E1,2.231E3,2.523E3,2.1E1,3.5E1,1.481E3,2.965E3,4.6E1,3.77E2,6.09E2,2.8E2],"tree_param":{"num_deleted":"0","num_feature":"7","num_nodes":"115","size_leaf_vector":"1"}},{"base_weights":[-2.7219122E1,-3.3385938E2,3.2503118E3,-1.113724E3,6.749229E2,2.467566E3,4.2280586E3,1.12461975E2,-1.6498688E3,-9.092811E0,1.3533163E3,4.1211743E3,1.8913804E3,2.9232031E3,4.832186E3,-2.0512725E3,3.7387146E2,-2.551625E3,-7.7739594E2,5.9263116E2,-8.3794214E2,3.9603496E3,2.0572408E2,2.5433914E3,4.58002E3,5.781249E2,2.55944E3,1.0121109E3,3.6002515E3,5.2208403E3,2.4959739E3,-2.999153E3,-1.5745172E3,1.0344588E4,3.13829E2,-4.0379672E2,-3.137597E3,1.6087491E3,-1.930517E3,3.9326938E2,3.5072434E3,-2.5347014E3,-4.8235733E2,2.4368813E3,5.154482E3,6.0718247E3,4.936755E1,1.0674193E3,3.0076592E3,6.8822944E3,3.7463752E3,-5.264743E2,1.7858016E3,3.5278743E3,1.9594283E3,3.126627E3,-2.8178916E0,5.099161E3,2.2086526E3,4.464995E3,5.5827856E3,9.015331E2,3.4183096E3,-2.4421915E2,-1.326909E2,-1.6876122E2,-6.997953E1,5.614596E2,3.3094214E2,3.515217E1,-4.926755E1,-7.1477806E1,2.8388662E1,-1.8363899E2,-7.96339E1,1.48405075E1,1.15698814E2,-3.0294132E1,-1.20340996E2,-1.0334891E1,5.181626E1,1.4080443E2,2.4527928E2,-1.7326424E2,-8.1885315E1,-1.7925514E1,-1.2920647E2,3.3319244E0,1.4824477E2,3.4018146E2,1.9967064E2,2.3589665E2,3.5175473E2,-2.1750082E1,9.32606E1,2.2819946E2,-4.232447E1,2.4468306E1,2.1807686E2,6.4580817E2,2.7648248E2,1.5332358E2,2.1001941E2,-9.866937E1,4.3651997E1,1.7434865E2,5.193175E1,2.4190819E2,1.3998837E2,1.9283113E2,6.935879E1,2.7460352E2,4.7983192E1,-1.327939E2,4.960641E1,2.080396E2,2.911987E2,6.9877655E1,1.6142729E2,2.4337541E2,3.7402332E1,3.7962006E2,2.6381586E2,7.879861E1,-3.63802E0,3.1204453E2,1.2035693E2],"categories":[],"categories_nodes":[],"categories_segments":[],"categories_sizes":[],"default_left":[0,0,0,0,0,0,0,0,0,0,0,0,0,0,0,0,0,0,0,0,0,0,0,0,0,0,0,0,0,0,0,0,0,0,0,0,0,0,0,0,0,0,0,0,0,0,0,0,0,0,0,0,0,0,0,0,0,0,0,0,0,0,0,0,0,0,0,0,0,0,0,0,0,0,0,0,0,0,0,0,0,0,0,0,0,0,0,0,0,0,0,0,0,0,0,0,0,0,0,0,0,0,0,0,0,0,0,0,0,0,0,0,0,0,0,0,0,0,0,0,0,0,0,0,0,0,0],"id":11,"left_children":[1,3,5,7,9,11,13,15,17,19,21,23,25,27,29,31,33,35,37,39,41,43,45,47,49,51,53,55,57,59,61,63,65,67,69,71,73,75,77,79,81,83,85,87,89,91,93,95,97,99,101,103,105,107,109,111,113,115,117,119,121,123,125,-1,-1,-1,-1,-1,-1,-1,-1,-1,-1,-1,-1,-1,-1,-1,-1,-1,-1,-1,-1,-1,-1,-1,-1,-1,-1,-1,-1,-1,-1,-1,-1,-1,-1,-1,-1,-1,-1,-1,-1,-1,-1,-1,-1,-1,-1,-1,-1,-1,-1,-1,-1,-1,-1,-1,-1,-1,-1,-1,-1,-1,-1,-1,-1],"loss_changes":[3.480704E10,2.491597E10,2.2572298E9,1.1742902E10,6.407827E9,1.5623956E9,1.02327706E9,3.074915E9,9.775845E9,3.4303214E9,2.074141E10,2.9603277E8,1.0723753E9,5.385006E8,8.023327E8,2.6009498E8,2.9002844E9,7.6898345E9,1.7387172E10,2.3141535E9,1.7442447E9,3.8423716E9,4.416033E9,6.3943296E7,6.037386E8,5.532158E8,4.6433587E8,2.3822438E8,6.3327386E8,1.8545254E8,1.8809715E8,1.1398886E8,1.1875232E8,2.1252608E7,2.4389827E9,1.3073505E9,3.963687E9,1.9043302E9,2.686291E9,1.4396803E9,2.3263488E8,4.1252352E8,6.21967E8,1.1674711E9,2.2456668E9,1.2982784E8,4.1267292E9,1.7116662E8,2.5016531E8,6.3048115E8,6.212941E7,4.411426E8,2.4804736E8,2.8124902E8,5.407438E8,1.7925869E8,2.0324866E8,7.642752E7,1.2949952E8,3.7637325E8,2.7773542E8,3.2312788E7,2.1901363E8,0E0,0E0,0E0,0E0,0E0,0E0,0E0,0E0,0E0,0E0,0E0,0E0,0E0,0E0,0E0,0E0,0E0,0E0,0E0,0E0,0E0,0E0,0E0,0E0,0E0,0E0,0E0,0E0,0E0,0E0,0E0,0E0,0E0,0E0,0E0,0E0,0E0,0E0,0E0,0E0,0E0,0E0,0E0,0E0,0E0,0E0,0E0,0E0,0E0,0E0,0E0,0E0,0E0,0E0,0E0,0E0,0E0,0E0,0E0,0E0,0E0,0E0,0E0,0E0],"parents":[2147483647,0,0,1,1,2,2,3,3,4,4,5,5,6,6,7,7,8,8,9,9,10,10,11,11,12,12,13,13,14,14,15,15,16,16,17,17,18,18,19,19,20,20,21,21,22,22,23,23,24,24,25,25,26,26,27,27,28,28,29,29,30,30,31,31,32,32,33,33,34,34,35,35,36,36,37,37,38,38,39,39,40,40,41,41,42,42,43,43,44,44,45,45,46,46,47,47,48,48,49,49,50,50,51,51,52,52,53,53,54,54,55,55,56,56,57,57,58,58,59,59,60,60,61,61,62,62],"right_children":[2,4,6,8,10,12,14,16,18,20,22,24,26,28,30,32,34,36,38,40,42,44,46,48,50,52,54,56,58,60,62,64,66,68,70,72,74,76,78,80,82,84,86,88,90,92,94,96,98,100,102,104,106,108,110,112,114,116,118,120,122,124,126,-1,-1,-1,-1,-1,-1,-1,-1,-1,-1,-1,-1,-1,-1,-1,-1,-1,-1,-1,-1,-1,-1,-1,-1,-1,-1,-1,-1,-1,-1,-1,-1,-1,-1,-1,-1,-1,-1,-1,-1,-1,-1,-1,-1,-1,-1,-1,-1,-1,-1,-1,-1,-1,-1,-1,-1,-1,-1,-1,-1,-1,-1,-1,-1],"split_conditions":[1.2738E2,2.022E3,2.022E3,5E0,1.1E1,4.8E1,2.1E1,9.927E1,1.1E1,9E0,1.7E1,4E0,1.3274E2,4E0,2.14E2,9.536E1,4E0,2.017E3,1.8E1,1.1539E2,3E0,1.3E1,9.867E1,2.7E1,7E0,2E1,6E0,6.6E1,8E0,5E0,5E0,2.009E3,2.018E3,4E0,2.4E1,1E1,1.1E1,1.3E1,2.02E3,2.023E3,1.81E2,2.023E3,1.2E1,1.0901E2,9.6E1,6E0,1.2024E2,2E0,2E0,2.1E1,3.1E1,7E1,5E0,1.2E2,2E1,2.023E3,7E1,2.023E3,2.023E3,1.74E2,6E0,2.21E2,7E0,-2.4421915E2,-1.326909E2,-1.6876122E2,-6.997953E1,5.614596E2,3.3094214E2,3.515217E1,-4.926755E1,-7.1477806E1,2.8388662E1,-1.8363899E2,-7.96339E1,1.48405075E1,1.15698814E2,-3.0294132E1,-1.20340996E2,-1.0334891E1,5.181626E1,1.4080443E2,2.4527928E2,-1.7326424E2,-8.1885315E1,-1.7925514E1,-1.2920647E2,3.3319244E0,1.4824477E2,3.4018146E2,1.9967064E2,2.3589665E2,3.5175473E2,-2.1750082E1,9.32606E1,2.2819946E2,-4.232447E1,2.4468306E1,2.1807686E2,6.4580817E2,2.7648248E2,1.5332358E2,2.1001941E2,-9.866937E1,4.3651997E1,1.7434865E2,5.193175E1,2.4190819E2,1.3998837E2,1.9283113E2,6.935879E1,2.7460352E2,4.7983192E1,-1.327939E2,4.960641E1,2.080396E2,2.911987E2,6.9877655E1,1.6142729E2,2.4337541E2,3.7402332E1,3.7962006E2,2.6381586E2,7.879861E1,-3.63802E0,3.1204453E2,1.2035693E2],"split_indices":[6,3,3,4,2,1,2,6,2,2,2,4,6,4,1,6,1,3,2,6,4,2,6,1,4,2,4,1,4,4,4,3,3,4,2,4,4,2,3,3,1,3,4,6,1,4,6,4,4,2,1,1,4,1,2,3,1,3,3,1,4,1,4,0,0,0,0,0,0,0,0,0,0,0,0,0,0,0,0,0,0,0,0,0,0,0,0,0,0,0,0,0,0,0,0,0,0,0,0,0,0,0,0,0,0,0,0,0,0,0,0,0,0,0,0,0,0,0,0,0,0,0,0,0,0,0,0],"split_type":[0,0,0,0,0,0,0,0,0,0,0,0,0,0,0,0,0,0,0,0,0,0,0,0,0,0,0,0,0,0,0,0,0,0,0,0,0,0,0,0,0,0,0,0,0,0,0,0,0,0,0,0,0,0,0,0,0,0,0,0,0,0,0,0,0,0,0,0,0,0,0,0,0,0,0,0,0,0,0,0,0,0,0,0,0,0,0,0,0,0,0,0,0,0,0,0,0,0,0,0,0,0,0,0,0,0,0,0,0,0,0,0,0,0,0,0,0,0,0,0,0,0,0,0,0,0,0],"sum_hessian":[3.4631E4,3.1669E4,2.962E3,1.7861E4,1.3808E4,1.647E3,1.315E3,5.434E3,1.2427E4,6.876E3,6.932E3,4.24E2,1.223E3,4.18E2,8.97E2,5.85E2,4.849E3,6.11E3,6.317E3,3.984E3,2.892E3,2.118E3,4.814E3,9.7E1,3.27E2,4.13E2,8.1E2,1.1E2,3.08E2,7.68E2,1.29E2,1.94E2,3.91E2,2.8E1,4.821E3,1.31E3,4.8E3,2.058E3,4.259E3,3.73E3,2.54E2,5E2,2.392E3,9.32E2,1.186E3,1.24E2,4.69E3,2.4E1,7.3E1,8.5E1,2.42E2,2.16E2,1.97E2,3.08E2,5.02E2,3.5E1,7.5E1,1.47E2,1.61E2,2.53E2,5.15E2,4.8E1,8.1E1,2.8E1,1.66E2,3.3E1,3.58E2,2.1E1,7E0,3.71E3,1.111E3,6.37E2,6.73E2,3.564E3,1.236E3,7.2E2,1.338E3,1.127E3,3.132E3,1.93E3,1.8E3,1.72E2,8.2E1,2.44E2,2.56E2,2.26E3,1.32E2,1.7E2,7.62E2,4.88E2,6.98E2,5.4E1,7E1,3.703E3,9.87E2,8E0,1.6E1,2.6E1,4.7E1,1.4E1,7.1E1,1E2,1.42E2,1.06E2,1.1E2,5.9E1,1.38E2,1.08E2,2E2,1.15E2,3.87E2,1.6E1,1.9E1,2E1,5.5E1,6.7E1,8E1,9.1E1,7E1,2.28E2,2.5E1,6.5E1,4.5E2,2.8E1,2E1,2E1,6.1E1],"tree_param":{"num_deleted":"0","num_feature":"7","num_nodes":"127","size_leaf_vector":"1"}},{"base_weights":[7.751881E0,6.1064824E3,-5.8987466E3,1.1850125E4,3.5892122E3,-4.437948E3,-6.616586E3,1.1235637E4,2.1723666E4,1.7553469E3,5.5096978E3,-5.93871E3,-2.5111057E3,-7.6070044E3,-5.597798E3,9.333152E3,1.3824454E4,2.4518793E4,1.889679E4,3.8630182E2,3.4814792E3,4.556915E3,1.0595584E4,-6.580561E3,-4.9903115E3,-2.850571E3,-5.466999E2,-7.823673E3,-6.7739673E3,-5.7893228E3,-5.023194E3,1.4756759E4,7.6998105E3,1.14778955E4,1.57198955E4,2.120888E4,2.9695982E4,2.0417988E4,1.3452441E4,-4.7708275E1,4.3091772E3,3.1000454E3,8.056609E3,1.0647766E4,3.854047E3,9.202527E3,1.2284137E4,-6.7619307E3,-6.063716E3,-5.606638E3,-3.1970217E3,-2.3859915E3,-3.6062783E3,-1.8913905E3,5.1513947E2,-5.4210803E2,-7.8022676E3,-6.9708066E3,-3.1091782E2,-4.6316672E2,-5.760845E3,-4.372234E3,-5.342896E3,2.9530072E2,8.0678064E2,2.1781717E2,6.727907E2,3.5914075E2,6.239835E2,8.3039795E2,3.170349E2,8.1631586E2,1.1453726E3,3.8785785E2,1.518244E3,7.056388E2,1.1048392E3,5.043021E2,9.4457385E2,-1.3169986E2,2.7785446E1,1.5987314E2,5.335468E2,9.4408875E1,1.8796394E2,3.4361624E2,6.083655E2,4.6658347E2,1.2498329E3,1.429406E2,3.5809186E2,6.531229E2,4.2351367E2,7.391397E2,5.673914E2,-3.4839597E2,-3.27209E2,-3.1519052E2,-2.8767307E2,-3.0869785E2,-2.5559117E2,-1.8408952E2,-1.0975935E2,-7.595776E1,-1.6349962E2,-1.2635532E2,-1.8497552E2,-7.25636E1,-1.7851717E2,7.979501E1,-4.697262E1,-3.8167926E2,-4.084343E2,-3.395883E2,-3.6672525E2,-2.6638422E2,-2.9904596E2,-2.9070956E2,-2.0938841E2,-2.7029453E2,-1.9717896E2],"categories":[],"categories_nodes":[],"categories_segments":[],"categories_sizes":[],"default_left":[0,0,0,0,0,0,0,0,0,0,0,0,0,0,0,0,0,0,0,0,0,0,0,0,0,0,0,0,0,0,0,0,0,0,0,0,0,0,0,0,0,0,0,0,0,0,0,0,0,0,0,0,0,0,0,0,0,0,0,0,0,0,0,0,0,0,0,0,0,0,0,0,0,0,0,0,0,0,0,0,0,0,0,0,0,0,0,0,0,0,0,0,0,0,0,0,0,0,0,0,0,0,0,0,0,0,0,0,0,0,0,0,0,0,0,0,0,0,0,0,0],"id":12,"left_children":[1,3,5,7,9,11,13,15,17,19,21,23,25,27,29,31,33,35,37,39,41,43,45,47,49,51,53,55,57,59,61,63,65,67,69,71,73,75,77,79,81,83,85,87,89,91,93,95,97,99,101,103,105,107,109,-1,111,113,-1,-1,115,117,119,-1,-1,-1,-1,-1,-1,-1,-1,-1,-1,-1,-1,-1,-1,-1,-1,-1,-1,-1,-1,-1,-1,-1,-1,-1,-1,-1,-1,-1,-1,-1,-1,-1,-1,-1,-1,-1,-1,-1,-1,-1,-1,-1,-1,-1,-1,-1,-1,-1,-1,-1,-1,-1,-1,-1,-1,-1,-1],"loss_changes":[1.2552996E12,2.4784503E11,1.8534302E10,3.1450857E10,4.197856E10,1.6861225E10,1.1932533E10,2.410283E10,1.9466322E9,1.4413887E10,2.8168487E10,1.9638026E9,1.7035725E9,1.0326835E9,6.1515366E8,2.5035964E10,9.079849E9,1.9405783E9,1.01730714E9,5.7940424E9,4.6833275E9,2.0961853E10,2.0463206E9,1.4206566E8,1.4498509E9,7.567626E8,5.407001E8,2.2341222E8,9.325363E7,3.8035456E8,2.8277146E8,7.910441E9,4.197249E10,3.9290798E9,9.46507E9,4.1387213E8,5.8624E8,9.583698E8,4.8692582E8,4.784738E9,2.3634417E9,1.9837706E9,9.241047E8,9.341194E9,1.4464459E10,1.3223608E9,7.961313E8,1.886208E7,2.24256E6,2.455081E8,1.5801242E8,1.03181414E9,7.39584E7,1.1822061E8,3.3477728E8,0E0,2.3042458E8,9.699328E6,0E0,0E0,3.8289408E8,1.0598707E8,6.5243136E7,0E0,0E0,0E0,0E0,0E0,0E0,0E0,0E0,0E0,0E0,0E0,0E0,0E0,0E0,0E0,0E0,0E0,0E0,0E0,0E0,0E0,0E0,0E0,0E0,0E0,0E0,0E0,0E0,0E0,0E0,0E0,0E0,0E0,0E0,0E0,0E0,0E0,0E0,0E0,0E0,0E0,0E0,0E0,0E0,0E0,0E0,0E0,0E0,0E0,0E0,0E0,0E0,0E0,0E0,0E0,0E0,0E0,0E0],"parents":[2147483647,0,0,1,1,2,2,3,3,4,4,5,5,6,6,7,7,8,8,9,9,10,10,11,11,12,12,13,13,14,14,15,15,16,16,17,17,18,18,19,19,20,20,21,21,22,22,23,23,24,24,25,25,26,26,27,27,28,28,29,29,30,30,31,31,32,32,33,33,34,34,35,35,36,36,37,37,38,38,39,39,40,40,41,41,42,42,43,43,44,44,45,45,46,46,47,47,48,48,49,49,50,50,51,51,52,52,53,53,54,54,56,56,57,57,60,60,61,61,62,62],"right_children":[2,4,6,8,10,12,14,16,18,20,22,24,26,28,30,32,34,36,38,40,42,44,46,48,50,52,54,56,58,60,62,64,66,68,70,72,74,76,78,80,82,84,86,88,90,92,94,96,98,100,102,104,106,108,110,-1,112,114,-1,-1,116,118,120,-1,-1,-1,-1,-1,-1,-1,-1,-1,-1,-1,-1,-1,-1,-1,-1,-1,-1,-1,-1,-1,-1,-1,-1,-1,-1,-1,-1,-1,-1,-1,-1,-1,-1,-1,-1,-1,-1,-1,-1,-1,-1,-1,-1,-1,-1,-1,-1,-1,-1,-1,-1,-1,-1,-1,-1,-1,-1],"split_conditions":[4E0,1E0,5E0,1.3125E2,2E0,2.022E3,6E0,2.022E3,8E0,2.022E3,1.222E2,2.021E3,1.2024E2,2.023E3,1.1872E2,4E0,6E0,1.4049E2,2.09E2,1.2306E2,1.2738E2,2.018E3,1.3125E2,1.1508E2,1E1,8E0,8.7E1,2.011E3,9E0,2.012E3,2.021E3,2.02E3,1E1,1.0315E2,1.2E1,2.021E3,2.017E3,3.1E1,2.21E2,2.018E3,1.404E2,5E0,1.74E2,3E0,2.023E3,3.5E1,2.021E3,8E0,1.17E2,5E0,1.2E1,2.023E3,9.907E1,6.6E1,2.023E3,-5.4210803E2,1.1608E2,1.1608E2,-3.1091782E2,-4.6316672E2,2.021E3,3E0,2.2E2,2.9530072E2,8.0678064E2,2.1781717E2,6.727907E2,3.5914075E2,6.239835E2,8.3039795E2,3.170349E2,8.1631586E2,1.1453726E3,3.8785785E2,1.518244E3,7.056388E2,1.1048392E3,5.043021E2,9.4457385E2,-1.3169986E2,2.7785446E1,1.5987314E2,5.335468E2,9.4408875E1,1.8796394E2,3.4361624E2,6.083655E2,4.6658347E2,1.2498329E3,1.429406E2,3.5809186E2,6.531229E2,4.2351367E2,7.391397E2,5.673914E2,-3.4839597E2,-3.27209E2,-3.1519052E2,-2.8767307E2,-3.0869785E2,-2.5559117E2,-1.8408952E2,-1.0975935E2,-7.595776E1,-1.6349962E2,-1.2635532E2,-1.8497552E2,-7.25636E1,-1.7851717E2,7.979501E1,-4.697262E1,-3.8167926E2,-4.084343E2,-3.395883E2,-3.6672525E2,-2.6638422E2,-2.9904596E2,-2.9070956E2,-2.0938841E2,-2.7029453E2,-1.9717896E2],"split_indices":[0,0,0,6,0,3,0,3,4,3,6,3,6,3,6,4,4,6,1,6,6,3,6,6,4,4,1,3,4,3,3,3,4,6,4,3,3,1,1,3,6,4,1,0,3,1,3,4,1,4,4,3,6,1,3,0,6,6,0,0,3,4,1,0,0,0,0,0,0,0,0,0,0,0,0,0,0,0,0,0,0,0,0,0,0,0,0,0,0,0,0,0,0,0,0,0,0,0,0,0,0,0,0,0,0,0,0,0,0,0,0,0,0,0,0,0,0,0,0,0,0],"split_type":[0,0,0,0,0,0,0,0,0,0,0,0,0,0,0,0,0,0,0,0,0,0,0,0,0,0,0,0,0,0,0,0,0,0,0,0,0,0,0,0,0,0,0,0,0,0,0,0,0,0,0,0,0,0,0,0,0,0,0,0,0,0,0,0,0,0,0,0,0,0,0,0,0,0,0,0,0,0,0,0,0,0,0,0,0,0,0,0,0,0,0,0,0,0,0,0,0,0,0,0,0,0,0,0,0,0,0,0,0,0,0,0,0,0,0,0,0,0,0,0,0],"sum_hessian":[3.4846E4,1.7144E4,1.7702E4,5.223E3,1.1921E4,5.835E3,1.1867E4,4.919E3,3.04E2,6.099E3,5.822E3,3.279E3,2.556E3,6.014E3,5.853E3,2.838E3,2.081E3,1.49E2,1.55E2,3.402E3,2.697E3,4.905E3,9.17E2,1.952E3,1.327E3,2.179E3,3.77E2,4.766E3,1.248E3,4.383E3,1.47E3,6.55E2,2.183E3,9.33E2,1.148E3,9.4E1,5.5E1,1.19E2,3.6E1,3.064E3,3.38E2,2.491E3,2.06E2,5.06E2,4.399E3,5.06E2,4.11E2,1.436E3,5.16E2,9.86E2,3.41E2,1.352E3,8.27E2,1.66E2,2.11E2,3E1,4.736E3,9.13E2,3.35E2,3.3E1,4.35E3,4.89E2,9.81E2,8.9E1,5.66E2,1.382E3,8.01E2,1.78E2,7.55E2,1.048E3,1E2,2.7E1,6.7E1,2E0,5.3E1,2.7E1,9.2E1,2.4E1,1.2E1,5.79E2,2.485E3,2.89E2,4.9E1,8.79E2,1.612E3,1.62E2,4.4E1,4.65E2,4.1E1,3.383E3,1.016E3,7.8E1,4.28E2,1.08E2,3.03E2,7.22E2,7.14E2,2.8E2,2.36E2,4.54E2,5.32E2,2.28E2,1.13E2,6.84E2,6.68E2,6.8E1,7.59E2,1.33E2,3.3E1,1.21E2,9E1,3.258E3,1.478E3,6.25E2,2.88E2,1.474E3,2.876E3,5.2E1,4.37E2,9.36E2,4.5E1],"tree_param":{"num_deleted":"0","num_feature":"7","num_nodes":"121","size_leaf_vector":"1"}},{"base_weights":[2.3654617E1,5.819552E3,-5.6092065E3,1.1410125E4,3.3367212E3,-4.2152227E3,-6.296142E3,1.0810328E4,2.0726799E4,1.6709941E3,5.11559E3,-5.6449556E3,-2.3904539E3,-7.2539116E3,-5.3210703E3,1.1856475E4,6.765163E3,1.8307594E4,2.3978654E4,3.9120004E2,3.2813398E3,4.2368105E3,1.0050143E4,-6.256307E3,-4.74493E3,-2.7135947E3,-2.1106122E2,-7.4589033E3,-6.4254087E3,-5.5013135E3,-4.772586E3,8.674312E3,1.5602444E4,2.0297899E3,9.243233E3,1.5231057E3,1.698445E4,1.3125955E3,1.9000318E4,3.8820683E1,5.2858716E3,2.9123481E3,7.75063E3,9.901741E3,3.5693745E3,1.2560215E4,9.032312E3,-6.4321978E3,-5.7607627E3,-4.4878345E3,-4.9781743E3,-2.2071882E3,-3.2781853E3,2.0393234E3,-8.7832007E2,-5.056363E2,-7.4387944E3,-6.2627246E3,-6.7632085E3,-8.2810205E3,-5.4628535E3,-4.1452153E3,-5.0778193E3,6.323697E2,2.9947812E2,9.471131E2,5.4887476E2,2.6777924E1,2.0026785E2,8.5654816E2,4.2886734E2,9.566878E2,6.415108E2,1.00335754E3,6.62984E2,-1.23119545E2,3.015958E1,9.818795E2,2.1300017E2,1.0247683E2,1.9448155E2,7.684176E2,3.6417804E2,4.3824576E2,1.1925746E3,1.2880682E2,3.4589206E2,5.652124E2,7.161818E2,3.8314157E2,6.0896014E2,-2.8086612E2,-3.2360797E2,-2.995875E2,-2.7367587E2,-2.2726192E2,-1.0600791E2,-2.7915854E2,-2.3039102E2,-1.4013322E2,-9.4773056E1,-1.0842376E2,-1.6931523E2,1.6612099E2,-1.9417475E0,-1.6601732E2,-1.4940595E1,-3.6401407E2,-3.8861127E2,-3.2660587E2,-2.8599115E2,-3.5351315E2,-3.1215207E2,-4.9544687E2,-3.5446277E2,-2.5105887E2,-2.8446762E2,-2.1502103E2,-1.7631796E2,-2.5678976E2,-1.898912E2],"categories":[],"categories_nodes":[],"categories_segments":[],"categories_sizes":[],"default_left":[0,0,0,0,0,0,0,0,0,0,0,0,0,0,0,0,0,0,0,0,0,0,0,0,0,0,0,0,0,0,0,0,0,0,0,0,0,0,0,0,0,0,0,0,0,0,0,0,0,0,0,0,0,0,0,0,0,0,0,0,0,0,0,0,0,0,0,0,0,0,0,0,0,0,0,0,0,0,0,0,0,0,0,0,0,0,0,0,0,0,0,0,0,0,0,0,0,0,0,0,0,0,0,0,0,0,0,0,0,0,0,0,0,0,0,0,0,0,0,0,0],"id":13,"left_children":[1,3,5,7,9,11,13,15,17,19,21,23,25,27,29,31,33,35,37,39,41,43,45,47,49,51,53,55,57,59,61,63,65,67,69,-1,71,-1,73,75,77,79,81,83,85,87,89,91,93,95,97,99,101,103,105,-1,107,109,111,113,115,117,119,-1,-1,-1,-1,-1,-1,-1,-1,-1,-1,-1,-1,-1,-1,-1,-1,-1,-1,-1,-1,-1,-1,-1,-1,-1,-1,-1,-1,-1,-1,-1,-1,-1,-1,-1,-1,-1,-1,-1,-1,-1,-1,-1,-1,-1,-1,-1,-1,-1,-1,-1,-1,-1,-1,-1,-1,-1,-1],"loss_changes":[1.1328351E12,2.3734531E11,1.6823943E10,2.9163782E10,3.5086533E10,1.5149605E10,1.0968269E10,2.0837695E10,2.054824E9,1.2607369E10,2.4791876E10,1.7629757E9,1.7987871E9,9.614131E8,5.515018E8,4.666373E10,1.1927048E10,2.473898E9,9.950495E8,5.881299E9,4.444922E9,1.8351555E10,2.096472E9,1.3177651E8,5.6930304E7,6.289193E8,4.9881706E8,1.786839E8,2.2818816E7,4.2429645E8,2.5719194E8,2.2591062E10,2.7626602E10,1.0339904E9,3.3616118E9,0E0,1.2723896E9,0E0,9.505792E6,4.4932316E9,3.2879027E9,2.1034271E9,6.21012E8,7.9104655E9,1.445616E10,3.851346E8,2.5743196E9,9.916416E6,1.507328E6,7.721062E7,1.2753306E8,2.129833E8,1.1863552E8,2.027816E8,3.612921E8,0E0,1.9321651E8,8.168653E7,1.5434752E7,4.2276864E7,4.050862E8,3.1034368E7,5.2701184E7,0E0,0E0,0E0,0E0,0E0,0E0,0E0,0E0,0E0,0E0,0E0,0E0,0E0,0E0,0E0,0E0,0E0,0E0,0E0,0E0,0E0,0E0,0E0,0E0,0E0,0E0,0E0,0E0,0E0,0E0,0E0,0E0,0E0,0E0,0E0,0E0,0E0,0E0,0E0,0E0,0E0,0E0,0E0,0E0,0E0,0E0,0E0,0E0,0E0,0E0,0E0,0E0,0E0,0E0,0E0,0E0,0E0,0E0],"parents":[2147483647,0,0,1,1,2,2,3,3,4,4,5,5,6,6,7,7,8,8,9,9,10,10,11,11,12,12,13,13,14,14,15,15,16,16,17,17,18,18,19,19,20,20,21,21,22,22,23,23,24,24,25,25,26,26,27,27,28,28,29,29,30,30,31,31,32,32,33,33,34,34,36,36,38,38,39,39,40,40,41,41,42,42,43,43,44,44,45,45,46,46,47,47,48,48,49,49,50,50,51,51,52,52,53,53,54,54,56,56,57,57,58,58,59,59,60,60,61,61,62,62],"right_children":[2,4,6,8,10,12,14,16,18,20,22,24,26,28,30,32,34,36,38,40,42,44,46,48,50,52,54,56,58,60,62,64,66,68,70,-1,72,-1,74,76,78,80,82,84,86,88,90,92,94,96,98,100,102,104,106,-1,108,110,112,114,116,118,120,-1,-1,-1,-1,-1,-1,-1,-1,-1,-1,-1,-1,-1,-1,-1,-1,-1,-1,-1,-1,-1,-1,-1,-1,-1,-1,-1,-1,-1,-1,-1,-1,-1,-1,-1,-1,-1,-1,-1,-1,-1,-1,-1,-1,-1,-1,-1,-1,-1,-1,-1,-1,-1,-1,-1,-1,-1,-1],"split_conditions":[4E0,1E0,5E0,1.3125E2,2E0,2.022E3,6E0,2.7E1,2.022E3,2.022E3,1.2222E2,2.021E3,1.222E2,2.023E3,1.1872E2,1.1E1,3E1,2E1,2.5E1,1.2738E2,1.2738E2,2.018E3,2.021E3,1.1508E2,1.1E1,2.023E3,1.2359E2,2.012E3,1.1608E2,2.015E3,2.021E3,1.0859E2,1.8E1,2.022E3,2.017E3,1.5231057E3,1.7E2,1.3125955E3,1.74E2,2.018E3,2.7E1,2.023E3,2.7E1,3E0,2.023E3,1.3274E2,2.023E3,1E0,1.17E2,1.1539E2,1.9E1,1.0615E2,9.907E1,2.023E3,1.2738E2,-5.056363E2,1.1608E2,1.1E1,1.236E2,2.01E3,2.021E3,1.3274E2,2.2E2,6.323697E2,2.9947812E2,9.471131E2,5.4887476E2,2.6777924E1,2.0026785E2,8.5654816E2,4.2886734E2,9.566878E2,6.415108E2,1.00335754E3,6.62984E2,-1.23119545E2,3.015958E1,9.818795E2,2.1300017E2,1.0247683E2,1.9448155E2,7.684176E2,3.6417804E2,4.3824576E2,1.1925746E3,1.2880682E2,3.4589206E2,5.652124E2,7.161818E2,3.8314157E2,6.0896014E2,-2.8086612E2,-3.2360797E2,-2.995875E2,-2.7367587E2,-2.2726192E2,-1.0600791E2,-2.7915854E2,-2.3039102E2,-1.4013322E2,-9.4773056E1,-1.0842376E2,-1.6931523E2,1.6612099E2,-1.9417475E0,-1.6601732E2,-1.4940595E1,-3.6401407E2,-3.8861127E2,-3.2660587E2,-2.8599115E2,-3.5351315E2,-3.1215207E2,-4.9544687E2,-3.5446277E2,-2.5105887E2,-2.8446762E2,-2.1502103E2,-1.7631796E2,-2.5678976E2,-1.898912E2],"split_indices":[0,0,0,6,0,3,0,2,3,3,6,3,6,3,6,2,2,2,2,6,6,3,3,6,2,3,6,3,6,3,3,6,2,3,3,0,1,0,1,3,1,3,1,0,3,6,3,2,1,6,2,6,6,3,6,0,6,2,6,3,3,6,1,0,0,0,0,0,0,0,0,0,0,0,0,0,0,0,0,0,0,0,0,0,0,0,0,0,0,0,0,0,0,0,0,0,0,0,0,0,0,0,0,0,0,0,0,0,0,0,0,0,0,0,0,0,0,0,0,0,0],"split_type":[0,0,0,0,0,0,0,0,0,0,0,0,0,0,0,0,0,0,0,0,0,0,0,0,0,0,0,0,0,0,0,0,0,0,0,0,0,0,0,0,0,0,0,0,0,0,0,0,0,0,0,0,0,0,0,0,0,0,0,0,0,0,0,0,0,0,0,0,0,0,0,0,0,0,0,0,0,0,0,0,0,0,0,0,0,0,0,0,0,0,0,0,0,0,0,0,0,0,0,0,0,0,0,0,0,0,0,0,0,0,0,0,0,0,0,0,0,0,0,0,0],"sum_hessian":[3.4697E4,1.7101E4,1.7596E4,5.258E3,1.1843E4,5.811E3,1.1785E4,4.942E3,3.16E2,6.117E3,5.726E3,3.257E3,2.554E3,5.942E3,5.843E3,3.925E3,1.017E3,1.85E2,1.31E2,3.409E3,2.708E3,4.862E3,8.64E2,1.936E3,1.321E3,2.224E3,3.3E2,4.757E3,1.185E3,4.391E3,1.452E3,2.124E3,1.801E3,3.5E2,6.67E2,1.6E1,1.69E2,8.7E1,4.4E1,3.181E3,2.28E2,2.503E3,2.05E2,5.11E2,4.351E3,2.46E2,6.18E2,1.42E3,5.16E2,6.38E2,6.83E2,1.175E3,1.049E3,7.5E1,2.55E2,3.2E1,4.725E3,8.13E2,3.72E2,5.7E1,4.334E3,4.8E2,9.72E2,8.55E2,1.269E3,1.044E3,7.57E2,2E2,1.5E2,5E1,6.17E2,1.09E2,6E1,3.5E1,9E0,5.85E2,2.596E3,1.4E1,2.14E2,1.331E3,1.172E3,1E1,1.95E2,4.74E2,3.7E1,3.357E3,9.94E2,1.48E2,9.8E1,4.33E2,1.85E2,7.3E1,1.347E3,2.75E2,2.41E2,6.22E2,1.6E1,2.54E2,4.29E2,4.01E2,7.74E2,9.5E1,9.54E2,4.6E1,2.9E1,4.8E1,2.07E2,3.218E3,1.507E3,5.36E2,2.77E2,2.26E2,1.46E2,2.1E1,3.6E1,1.477E3,2.857E3,3.79E2,1.01E2,9.27E2,4.5E1],"tree_param":{"num_deleted":"0","num_feature":"7","num_nodes":"121","size_leaf_vector":"1"}},{"base_weights":[5.5278316E1,5.577477E3,-5.3241914E3,1.0799054E4,3.2239119E3,-3.9922415E3,-5.9856562E3,1.0221187E4,1.9675004E4,1.5781748E3,4.9395894E3,-5.3706714E3,-2.266088E3,-6.8863394E3,-5.056858E3,1.1261833E4,6.3123047E3,2.1792264E4,1.4945925E4,3.4729684E2,3.1199592E3,4.0742793E3,9.721441E3,-5.9524453E3,-4.514166E3,-2.589112E3,-4.7652145E2,-7.0855986E3,-6.1048257E3,-5.233746E3,-4.5187856E3,8.193809E3,1.475923E4,1.7810485E3,8.692892E3,1.4046995E3,1.9995805E4,1.9898367E4,9.99184E3,-2.0744167E3,8.968793E2,2.7394373E3,7.445636E3,9.486396E3,3.4317175E3,7.9906855E3,1.0881972E4,-6.115155E3,-2.7377255E2,-5.094658E3,-2.8057039E3,-2.1551045E3,-3.2673926E3,4.1836707E2,-1.6178481E3,-6.9367534E3,-7.404211E3,-6.2995186E3,-2.7788525E2,-7.8655156E3,-5.1946914E3,-3.8532644E3,-4.8400503E3,5.7309515E2,2.9580338E2,9.196802E2,5.612467E2,1.4389424E1,1.9893175E2,3.271296E2,5.644723E2,8.358608E2,1.2218834E3,6.92231E2,1.0703033E3,3.4143884E2,6.059171E2,-3.9259314E2,-8.11295E1,3.7177364E1,4.6653052E2,7.504279E1,1.6972722E2,3.2941214E2,4.7184552E2,4.2154654E2,1.1353916E3,1.2356289E2,3.2853055E2,5.2024976E2,3.4932516E2,9.4452E2,5.156108E2,-2.7880222E2,-3.0898514E2,-2.842537E2,-2.294655E2,-1.635448E2,-9.058758E1,-6.671356E1,-1.4821507E2,-1.7391827E2,-1.3722874E2,-1.405991E2,5.554086E1,5.5230347E1,-9.674966E1,-3.617508E2,-3.1861993E2,-3.878063E2,-3.399421E2,-3.5044916E2,-3.1135614E2,-4.730374E2,-3.3758084E2,-2.3874565E2,-2.7019705E2,-2.685751E2,-1.835222E2,-2.4873607E2,-2.2300218E2],"categories":[],"categories_nodes":[],"categories_segments":[],"categories_sizes":[],"default_left":[0,0,0,0,0,0,0,0,0,0,0,0,0,0,0,0,0,0,0,0,0,0,0,0,0,0,0,0,0,0,0,0,0,0,0,0,0,0,0,0,0,0,0,0,0,0,0,0,0,0,0,0,0,0,0,0,0,0,0,0,0,0,0,0,0,0,0,0,0,0,0,0,0,0,0,0,0,0,0,0,0,0,0,0,0,0,0,0,0,0,0,0,0,0,0,0,0,0,0,0,0,0,0,0,0,0,0,0,0,0,0,0,0,0,0,0,0,0,0,0,0],"id":14,"left_children":[1,3,5,7,9,11,13,15,17,19,21,23,25,27,29,31,33,35,37,39,41,43,45,47,49,51,53,55,57,59,61,63,65,67,69,-1,71,73,75,77,79,81,83,85,87,89,91,93,-1,95,97,99,101,103,105,107,109,111,-1,113,115,117,119,-1,-1,-1,-1,-1,-1,-1,-1,-1,-1,-1,-1,-1,-1,-1,-1,-1,-1,-1,-1,-1,-1,-1,-1,-1,-1,-1,-1,-1,-1,-1,-1,-1,-1,-1,-1,-1,-1,-1,-1,-1,-1,-1,-1,-1,-1,-1,-1,-1,-1,-1,-1,-1,-1,-1,-1,-1,-1],"loss_changes":[1.0369054E12,2.1163645E11,1.5553757E10,2.7244823E10,3.3519084E10,1.3954802E10,9.846489E9,2.0373471E10,2.9384376E9,1.1503067E10,2.401334E10,1.599062E9,1.5063808E9,8.901755E8,5.3020262E8,4.245609E10,1.1407999E10,1.9627704E9,2.3527956E9,4.489761E9,4.4090307E9,1.709124E10,1.7007002E9,1.1708006E8,1.2987802E9,6.4323994E8,4.092211E8,1.7486643E8,9.547366E7,4.0861696E8,2.9073203E8,1.568342E10,2.3595254E10,1.1999085E9,3.8009938E9,0E0,2.1691187E9,1.6912589E8,2.8046285E8,1.6161518E9,3.5479606E9,2.0031283E9,3.0831104E8,7.092941E9,1.3257847E10,8.0251494E8,2.2235054E9,1.5577088E7,0E0,2.6839245E8,1.503575E8,8.92736E8,8.531046E7,5.064159E8,1.5409808E8,5.03808E8,2.676818E8,2.371584E6,0E0,4.629248E7,3.5294413E8,1.1240397E8,2.7553792E7,0E0,0E0,0E0,0E0,0E0,0E0,0E0,0E0,0E0,0E0,0E0,0E0,0E0,0E0,0E0,0E0,0E0,0E0,0E0,0E0,0E0,0E0,0E0,0E0,0E0,0E0,0E0,0E0,0E0,0E0,0E0,0E0,0E0,0E0,0E0,0E0,0E0,0E0,0E0,0E0,0E0,0E0,0E0,0E0,0E0,0E0,0E0,0E0,0E0,0E0,0E0,0E0,0E0,0E0,0E0,0E0,0E0,0E0],"parents":[2147483647,0,0,1,1,2,2,3,3,4,4,5,5,6,6,7,7,8,8,9,9,10,10,11,11,12,12,13,13,14,14,15,15,16,16,17,17,18,18,19,19,20,20,21,21,22,22,23,23,24,24,25,25,26,26,27,27,28,28,29,29,30,30,31,31,32,32,33,33,34,34,36,36,37,37,38,38,39,39,40,40,41,41,42,42,43,43,44,44,45,45,46,46,47,47,49,49,50,50,51,51,52,52,53,53,54,54,55,55,56,56,57,57,59,59,60,60,61,61,62,62],"right_children":[2,4,6,8,10,12,14,16,18,20,22,24,26,28,30,32,34,36,38,40,42,44,46,48,50,52,54,56,58,60,62,64,66,68,70,-1,72,74,76,78,80,82,84,86,88,90,92,94,-1,96,98,100,102,104,106,108,110,112,-1,114,116,118,120,-1,-1,-1,-1,-1,-1,-1,-1,-1,-1,-1,-1,-1,-1,-1,-1,-1,-1,-1,-1,-1,-1,-1,-1,-1,-1,-1,-1,-1,-1,-1,-1,-1,-1,-1,-1,-1,-1,-1,-1,-1,-1,-1,-1,-1,-1,-1,-1,-1,-1,-1,-1,-1,-1,-1,-1,-1,-1],"split_conditions":[4E0,1E0,5E0,1.3125E2,2E0,2.022E3,6E0,2.7E1,2.5E1,2.022E3,1.2222E2,2.021E3,1.2024E2,2.023E3,1.1872E2,1.1E1,3E1,1.404E2,1.3274E2,2.018E3,1.2738E2,2.018E3,1.2738E2,1.1508E2,1E1,8E0,2.023E3,1.1608E2,9E0,2.016E3,2.021E3,1.0859E2,1.7E1,2.022E3,2.022E3,1.4046995E3,2.022E3,4E0,2.021E3,2.013E3,1.404E2,5E0,1.404E2,3E0,2.023E3,2.021E3,1.2739E2,9.762E1,-2.7377255E2,5E0,1.2E1,2.023E3,1.1148E2,3E0,7E0,1.1E1,1.236E2,9.927E1,-2.7788525E2,2.01E3,2.021E3,3E0,1.3125E2,5.7309515E2,2.9580338E2,9.196802E2,5.612467E2,1.4389424E1,1.9893175E2,3.271296E2,5.644723E2,8.358608E2,1.2218834E3,6.92231E2,1.0703033E3,3.4143884E2,6.059171E2,-3.9259314E2,-8.11295E1,3.7177364E1,4.6653052E2,7.504279E1,1.6972722E2,3.2941214E2,4.7184552E2,4.2154654E2,1.1353916E3,1.2356289E2,3.2853055E2,5.2024976E2,3.4932516E2,9.4452E2,5.156108E2,-2.7880222E2,-3.0898514E2,-2.842537E2,-2.294655E2,-1.635448E2,-9.058758E1,-6.671356E1,-1.4821507E2,-1.7391827E2,-1.3722874E2,-1.405991E2,5.554086E1,5.5230347E1,-9.674966E1,-3.617508E2,-3.1861993E2,-3.878063E2,-3.399421E2,-3.5044916E2,-3.1135614E2,-4.730374E2,-3.3758084E2,-2.3874565E2,-2.7019705E2,-2.685751E2,-1.835222E2,-2.4873607E2,-2.2300218E2],"split_indices":[0,0,0,6,0,3,0,2,2,3,6,3,6,3,6,2,2,6,6,3,6,3,6,6,4,4,3,6,4,3,3,6,2,3,3,0,3,4,3,3,6,4,6,0,3,3,6,6,0,4,4,3,6,4,2,2,6,6,0,3,3,4,6,0,0,0,0,0,0,0,0,0,0,0,0,0,0,0,0,0,0,0,0,0,0,0,0,0,0,0,0,0,0,0,0,0,0,0,0,0,0,0,0,0,0,0,0,0,0,0,0,0,0,0,0,0,0,0,0,0,0],"split_type":[0,0,0,0,0,0,0,0,0,0,0,0,0,0,0,0,0,0,0,0,0,0,0,0,0,0,0,0,0,0,0,0,0,0,0,0,0,0,0,0,0,0,0,0,0,0,0,0,0,0,0,0,0,0,0,0,0,0,0,0,0,0,0,0,0,0,0,0,0,0,0,0,0,0,0,0,0,0,0,0,0,0,0,0,0,0,0,0,0,0,0,0,0,0,0,0,0,0,0,0,0,0,0,0,0,0,0,0,0,0,0,0,0,0,0,0,0,0,0,0,0],"sum_hessian":[3.4903E4,1.7223E4,1.768E4,5.35E3,1.1873E4,5.869E3,1.1811E4,5.025E3,3.25E2,6.061E3,5.812E3,3.262E3,2.607E3,5.993E3,5.818E3,3.967E3,1.058E3,2.22E2,1.03E2,3.371E3,2.69E3,4.923E3,8.89E2,1.939E3,1.323E3,2.208E3,3.99E2,4.769E3,1.224E3,4.372E3,1.446E3,2.115E3,1.852E3,3.65E2,6.93E2,4.6E1,1.76E2,5E1,5.3E1,6.23E2,2.748E3,2.474E3,2.16E2,5.21E2,4.402E3,3.6E2,5.29E2,1.437E3,5.02E2,9.86E2,3.37E2,1.349E3,8.59E2,2.24E2,1.75E2,3.266E3,1.503E3,8.95E2,3.29E2,6.1E1,4.311E3,4.75E2,9.71E2,8.67E2,1.248E3,9.11E2,9.41E2,2.18E2,1.47E2,3.81E2,3.12E2,1.04E2,7.2E1,1.2E1,3.8E1,2.3E1,3E1,4.4E1,5.79E2,2.7E3,4.8E1,8.57E2,1.617E3,1.54E2,6.2E1,4.84E2,3.7E1,3.372E3,1.03E3,1.03E2,2.57E2,3.3E1,4.96E2,1.63E2,1.274E3,4.5E2,5.36E2,2.28E2,1.09E2,6.71E2,6.78E2,6.08E2,2.51E2,3.9E1,1.85E2,1.8E1,1.57E2,2.129E3,1.137E3,9.43E2,5.6E2,7.4E1,8.21E2,2.2E1,3.9E1,1.442E3,2.869E3,4.8E1,4.27E2,7.08E2,2.63E2],"tree_param":{"num_deleted":"0","num_feature":"7","num_nodes":"121","size_leaf_vector":"1"}},{"base_weights":[7.0433316E0,5.2510127E3,-5.062256E3,1.0183603E4,3.057059E3,-3.7894187E3,-5.697815E3,6.5351416E3,1.1575651E4,1.5225928E3,4.673408E3,-5.087305E3,-2.1727751E3,-6.553276E3,-4.8192236E3,4.9902583E3,1.6227505E4,1.3681799E4,5.8468145E3,3.6108096E2,2.9667446E3,9.638898E3,4.0933572E3,-5.639964E3,-4.2818115E3,-1.7207131E3,-2.8744573E3,-6.74356E3,-5.8073184E3,-7.383462E3,-4.789936E3,2.883972E3,